{"config": {"vocab_size": 87, "d_model": 64, "num_heads": 2, "num_layers": 2, "max_seq_len": 32}, "tokenizer": {"chars": [" ", "!", "\"", "'", "(", ")", "*", "+", ",", "-", ".", "/", "0", "1", "2", "3", "4", "5", "6", "7", "8", "9", ":", ";", "?", "@", "A", "B", "C", "D", "E", "F", "G", "H", "I", "J", "K", "L", "M", "N", "O", "P", "Q", "R", "S", "T", "U", "V", "W", "X", "Y", "Z", "[", "]", "_", "`", "a", "b", "c", "d", "e", "f", "g", "h", "i", "j", "k", "l", "m", "n", "o", "p", "q", "r", "s", "t", "u", "v", "w", "x", "y", "z", " ", "\n", "\t", "<PAD>", "<UNK>"], "vocab_size": 87}, "embedding": {"weight": [[0.07850594853536375, 0.10999774578847754, -0.15084537866388154, -0.10110201347779464, 0.21738625334579664, 0.03474405502899474, 0.23708393709559583, -0.006608604014724663, -0.10253509070874837, -0.09891437793295026, 0.14876434155233487, -0.14564316687068798, -0.03715325369375954, 0.020223599446436827, 0.1175897347288583, -0.10008297746744726, -0.0009622894931077718, 0.19028160383829887, 0.11502869445715586, 0.03454822055988907, 0.05309781767771704, 0.19240639375539578, -0.13441917593960295, -0.09653173458395861, 0.14001954333382755, -0.09014385381690296, -0.2117986213728527, -0.12381305892595859, -0.11219531889376946, -0.03178803660321134, 0.015165513322680653, -0.15372329108656305, -0.09546617450409794, -0.03059159464595952, -0.13014504086540563, -0.19128789037799493, 0.14740525141566993, 0.005182917112613146, 0.16047050838287705, 0.07913474242924348, -0.008674760773665904, 0.01620609264205934, 0.007390772642129017, -0.0854076727963073, 0.1360092406391738, -0.08674176102885947, 0.0657558071821098, 0.0663716693335278, -0.01622607592686484, 0.03851776314212571, -0.1688417028751028, 0.06575106225384844, 0.09370006887338886, -0.07476644203974127, 0.02890919146972154, -0.12133790285854582, -0.09853303011994594, -0.021299697675302657, -0.0065600931958822994, -0.03830827005924192, 0.047322473512277294, -0.08602012825712503, -0.1020456330107726, 0.013169213298041495], [-0.07214117937702205, 0.19480367374740445, 0.10229591434397335, 0.1094767710419634, 0.05235686791170864, -0.05890632352975455, -0.023540400981597466, 0.00933222269374219, -0.020179182822771678, 0.11955417350225198, -0.18874594676267054, 0.1595287990775054, -0.09019967829190213, -0.04207630120160494, 0.07015386188259089, -0.11636962695716742, 0.0477135322803035, 0.05526423133768606, 0.11138942434239071, -0.17686804009818932, 0.22557368614928922, 0.02092063688915377, 0.05950854338118253, 0.2122316250303157, 0.11640208708158414, -0.028392535467121033, 0.06433392176399094, -0.01114110687435565, 0.09918914122744636, -0.06806690988937364, -0.02896032205027688, -0.08508035253754832, 0.09687061994970744, 0.12554270256137287, -0.08453375761525649, 0.060173996723895756, 0.01918496796988361, -0.07703966476159294, -0.09910776162082277, 0.024695297565907198, -0.1571024103727674, 0.10133758332851182, -0.1904695664179105, -0.08662841895532933, -0.030867722546128927, -0.11519216864969742, 0.060329453807218526, 0.061456780125993635, 0.07973583500785306, -0.011367995931759708, -0.1591053121694821, 0.0012978748427063776, -0.1888874248964405, -0.05018049712073956, 0.1742872567118756, 0.01636440981288799, 0.10339075778359316, -0.36684588042870936, 0.03715814596717843, -0.25857067135096323, 0.10291354651284901, 0.06855633888508658, -0.12657336868774588, -0.01102922651528276], [-0.20378234314225113, -0.26968669176571797, -0.1776767498326973, 0.013792416014419155, -0.10795280219820835, -0.019193034877635375, 0.06357476067810604, 0.03790950772724825, 0.010861720356421741, 0.028131291904712658, -0.1101774275038587, 0.05070600705038325, 0.03380136223428819, 0.14556703911814758, -0.04661783466985003, -0.08620035887521356, 0.08184201444054953, 0.014352227392250033, -0.09748495618315785, 0.22306249727741478, 0.08178636928127525, -0.056837202654372046, 0.025562123859004447, -0.08333632418255563, 0.05271952132579429, 0.02473620489641823, -0.023917628183326028, 0.021201612369655738, -0.09683599392365538, -0.022251579371822757, -0.19527641873484816, 0.21474507885541516, 0.07267428427251385, -0.06122636260012539, -0.041564554013617944, -0.04511013637523086, 0.050184841038471074, -0.16922013317894033, 0.01963285146488578, -0.023776537970793852, 0.08712658834774514, -0.0027546846964182858, 0.02067110621267169, 0.06513102650607368, -0.03869630237271897, 0.2939099960881309, -0.0775856141126941, 0.030842248550908627, 0.12258091183492516, -0.0731361365345157, -0.1422022589124612, -0.3103634693953974, -0.06748918122364213, -0.038929963683814, -0.20605636490488638, -0.21388134181894827, 0.062152886434361766, -0.06824979923965824, -0.015293328074568608, 0.014777044831655697, -0.028842103144477105, -0.12629735356971447, 0.05813196337565443, -0.06706537799865092], [-0.15818808438984527, 0.02937855575097481, -0.10256084288118378, 0.07401067118630927, -0.07278648137779187, -0.032494841650233273, -0.20634912947622375, 0.017167151057103553, 0.07620673621307464, 0.16209289494708926, 0.17293530646838381, -0.04533578663104553, 0.10329855897111669, 0.13368124506612342, 0.1707049371328598, -0.05911734866763466, 0.09270274155028681, -0.07078945760393054, 0.07203645372483104, 0.19387895558707094, -0.19463086883136876, 0.11487418431920697, -0.2386963075925623, -0.1335278627384517, 0.051999615915837155, 0.01996439303485905, 0.1875111953658139, -0.12321672006678093, 0.11894640918862462, -0.16243080290643042, 0.051161609927592167, 0.09152473248902836, 0.3343769296551765, 0.1920235456604772, 0.0016441335668062056, -0.06527585190075515, 0.026393269857016118, -0.01671970022572088, -0.019010744156646164, -0.08967062220736426, 0.13984013413607513, 0.08994992814074078, -5.592183164557307e-05, -0.15782543516897665, -0.17573798291724016, 0.12065463440714884, 0.07284974336044137, 0.06952425470812347, -0.010228677044463464, 0.15194901533768995, 0.1108421064702139, 0.08034560127787367, 0.13533603820031995, 0.14173075069706914, 0.19388695100995915, -0.03642415605237357, 0.04690588384327915, 0.014409823364838252, -0.23012283103007275, 0.185248725225414, -0.05235404415387682, -0.04592438132127921, -0.15354936414479683, 0.036106907865910434], [-0.08780876067998526, -0.13234402353917235, 0.027904543894293164, -0.01944668852910315, 0.1654878146133571, -0.07215580192265318, 0.07495731907564747, 0.11794208296391018, -0.06542283029008464, -0.041823266208657055, -0.22097539158574755, -0.014601802776698551, -0.3083389823383389, -0.05092008323122416, -0.05735928173373246, 0.14290175542667016, -0.022272209338938885, 0.07854595886149263, 0.028730105673295887, 0.05280129379995415, 0.003970030538584057, 0.22980851259558563, -0.2548165310010356, 0.06336635449806828, 0.0350243121922407, 0.19314392804981503, -0.08266366809126365, 0.14796881495044759, -0.024061842589748045, 0.15785192645887103, 0.0835365119657719, 0.2010131047011914, -0.07167720301477756, 0.014662270750041775, 0.19195671253261143, 0.009640034757884287, 0.0105461171862496, -0.06263452920556607, 0.19405577999243362, -0.10422200438885473, 0.03388096020795995, 0.12408243909693122, -0.044636648018171014, 0.12429556972833346, 0.012788894712991532, -0.24901748692305864, 0.17220695420491838, -0.04773806955670545, -0.14406201436167743, -0.11905254140007153, 0.06139025847844134, -0.1636305803832584, -0.10846563971600741, 0.17388285961219488, -0.08171722702949226, 0.1844579210224033, 0.0443454211607957, 0.07618610640394283, -0.2670578693994994, 0.06978362006368972, -0.082285108919803, 0.13186097740536223, 0.027379756121157978, 0.12532958418260798], [-0.08707331102459585, -0.07008547344190272, 0.1941908443585933, 0.006771887830475817, 0.1484884413856889, 0.07189326068484071, -0.17709200890313007, -0.1585630500286868, -0.007371879928642416, 0.01228717334289129, 0.0977868071298306, 0.09338669076336534, -0.1353507272949193, -0.18090976344879964, 0.0923766119542682, 0.08951083757140572, 0.12050404111503046, 0.11524111565971913, 0.16849764000537776, 0.045421505146687566, -0.09311256985626272, 0.04324304066634606, 0.1376049239659415, -0.15776416875712831, 0.017506101093317093, 0.025947316701391516, -0.06868134048434779, 0.1253730588961524, 0.23334631929118074, -0.05902762256739206, -0.0875492450370357, -0.06614302804571624, 0.11925477013358277, -0.09391043430392032, 0.1272757147120347, 0.15665418725299377, 0.00032791844177981636, -0.2670304793818215, -0.12556492788915613, 0.0021012052212437404, -0.2115390846411114, 0.03097106203726404, -0.11909366725327308, -0.032937717094214516, 0.09942656210591502, -0.008182906649483145, 0.03666998469314223, -0.13922279126825277, 0.015190626427961937, -0.01964660496093624, 0.05140898328724451, -0.07037053906440761, 0.12867316962261657, -0.2837550932583355, 0.17963911559710916, -0.02719771730728022, -0.24657341210476, -0.08288727463495392, 0.12603949068458226, -0.10586301768425924, 0.03230223557921806, 0.18789210080199892, 0.0261981170273493, -0.08051731342922235], [-0.0997981293777775, -0.05418493522578324, 0.043774621784694254, -0.15403774706024376, -0.07948379291029944, 0.037645819635890136, 0.09232028746022075, 0.08913545552247341, 0.03730227952746855, -0.012854812716829757, -0.07231147998542703, -0.05590944903729172, -0.07531208173740161, 0.051647602637444376, -0.04911598641256684, 0.0028761022214526238, -0.0013321037703198158, 0.027752068658403364, 0.1585705326449824, 0.08961275161719016, 0.07888570109698702, 0.04578670371772984, -0.12514899396762877, -0.001592444496322645, -0.1375737643298186, 0.11404188068808956, -0.10736536295854646, -0.08284532239675375, -0.040992470850196736, 0.010778780766537186, -0.02464182825604215, 0.16642661258549374, 0.02302809135049167, 0.10503377713785127, 0.12301080148051005, -0.019210393200859394, 0.06602419080543313, 0.08044466156901275, -0.102104714703729, 0.04432531961628631, 0.1951957864902476, -0.03233433798841538, 0.11228168117126489, 0.15834538456214936, -0.13125159754187965, 0.13758633135677728, 0.07531614072810619, 0.03692200787477374, 0.1169786373888899, -0.10725132530556204, 0.007056402547428125, 0.05079276183706261, 0.08495808549916722, 0.12684110810884067, 0.1059710733614304, -0.01872469070025441, 0.15445440239914554, 0.04760471650371093, -0.05115342471947847, -0.11739439278951352, 0.021584311086775998, -0.03292101912565768, 0.09262829970701947, 0.03948300297298231], [-0.08397758600192741, -0.1500755536294115, -0.04354304133875917, 0.06832469433864309, 0.15686614338351088, -0.05444528879222192, -0.13466770209866286, 0.04660694700701862, 0.07146413984078617, -0.11160009739510697, -0.06740905301908696, 0.1505394688926635, -0.03010775737063604, -0.016451457399686086, 0.14462886592805732, 0.16214223804503508, 0.044660467147801836, -0.04340757040436254, 0.06170376322653389, 0.04332407624912858, -0.14229837821196242, 0.10066636927953994, -0.13647824077068635, 0.1266963683955559, -0.0673928929516735, -0.15609141642412844, -0.14409349591307768, 0.039783633706455844, -0.025940319162456697, 0.06514056628719941, -0.2342532355010903, 0.10079003710274716, -0.2018134915850117, -0.2279672411599836, -0.004078585344825539, -0.033509243977542125, 0.038503856876483784, -0.29295027502904636, 0.17211429335743478, 0.10295907415656562, 0.12708249397702287, 0.07856614698326234, 0.16399547949128604, -0.1223871936532617, -0.18738273122534893, 0.00041776637609544973, -0.08445011983715618, 0.2575437670762207, -0.18940246648820533, -0.16908787980892168, -0.1130500566544471, -0.05346160425081132, 0.04004403948425151, -0.005086014222907749, 0.22321397360913153, -0.009909160214852176, 0.10852827401252073, -0.2838894675097052, -0.01290227390298646, -0.19948813185021022, -0.33892435123767545, -0.12751947200424063, -0.04895783235223515, -0.10450648759013226], [-0.0011725017272109506, 0.27762269369563014, 0.02928727442106535, 0.052340322882382606, 0.042204982312218954, -0.1678497302971041, 0.0421722202063064, 0.02670718130749293, 0.037183476696641724, 0.19241466168830892, 0.10681576935944044, -0.15202534695790076, -0.04742645827207276, -0.10676379408486593, 0.013343221097767411, -0.11068415057549182, 0.008331576348241037, 0.0406240569450603, -0.04280174377996336, -0.2118241278878766, -0.06751281764992773, 0.11060586593365893, 0.1658917022960269, -0.015013701672477632, 0.02029859373375401, 0.06235080738486244, 0.00046792621861413517, 0.13522788244530712, -0.09031470814248053, -0.14463399786144363, 0.06342412527639099, -0.09310670801350604, 0.11075466290666025, 0.2556532969541499, 0.01663374312601582, 0.18686578421854524, -0.057370342597429694, -0.014076165101985868, 0.050599949920556914, 0.1404229212201556, -0.045340603374946366, -0.019912062807174585, 0.15730334175056082, 0.14969954693505996, -0.0716359869444032, 0.10518829411986537, 0.20953442047062829, -0.048025523347249785, 0.08276752760691938, 0.14054383028559383, 0.058099259025857115, -0.0889943155024794, -0.06813760547515156, -0.16219814264804952, 0.1065644461640889, 0.1326608934019091, 0.10361502361690347, 0.16854156681451346, -0.08129058550778692, -0.2083693743476634, -0.001142610396588152, 0.07975947539335151, -0.18140313659130186, -0.08931818041018465], [0.018502643996181692, -0.059455338880574395, -0.2124282408628038, 0.10720792124146256, -0.16973116362593244, -0.10225225584415605, -0.00769997039514838, 0.042497193707301095, -0.035272707907219834, 0.07009947824013063, -0.06339968146829024, -0.11625775556731821, -0.15073232807971226, 0.10006767405251657, 0.18971700766682223, 0.09108263662906188, 0.10708467367946618, 0.11570242254159019, 0.06441677781536927, 0.16674243180959936, -0.024605432968399895, -0.2948998065238412, -0.07508004013101677, -0.013210668027926482, 0.013523519036868282, 0.19647603206101877, 0.09954730792436359, -0.1632910258914262, 0.10066174878390947, 0.19341077410136048, 0.0283994686012989, -0.07060007357826012, 0.12121182185294173, 0.04077598067083116, 0.10473880247793818, 0.10932607546189455, -0.05699803516163971, 0.03944561862489909, 0.1762225665906405, 0.21567630691012715, 0.10778425008839383, -0.22879608601415144, -0.0010839866029395324, 0.036876642905265156, 0.061703313316957664, 0.06326107478651566, -0.06986729192945593, 0.046662505552484836, 0.07028286052686553, -0.00735018237222392, 0.16544546312279468, -0.026305521781291016, 0.16146424683212224, -0.11048611414204502, -0.05432218671685587, -0.04895138477108136, 0.052351893063581394, -0.06411406783026645, 0.04799283989892988, 0.1555048973849449, 0.061464727008364785, -0.10669434219978514, -0.01224189710626612, -0.11018073024571766], [0.03653423188981084, -0.019699701939842718, 0.12106231718629402, -0.07285815128737007, -0.03303836220795236, -0.24166721360265078, -0.08255696700985313, -0.13075273695683406, -0.009359784769804664, -0.10255654888206865, -0.05847477214224933, -0.08923343720514128, 0.13923531954128354, -0.1159739989997874, 0.007940169487978415, 0.024999804809524934, -0.016100338511071507, -0.2897000798931105, 0.001755347918698619, -0.12279924138980589, 0.040252792668465584, 0.03690225480862755, -0.24444433044273325, 0.006685350281203259, 0.0285337885922902, -0.042411791557585836, -0.01832981968132544, 0.14452940862054603, -0.09752979465241837, -0.1717774841109615, -0.037461476500186726, 0.040075900113356336, 0.061979898673576186, -0.2723744296833494, 0.04615723165996234, -0.048684060777644186, -0.08982336152586654, 0.07166823131361968, -0.1061988532712265, 0.061513812014360625, -0.0214887608697693, 0.21334140586939287, -0.07580463157725978, -0.02812880434327188, -0.07946230267939365, 0.22102474019101717, -0.050712478177182205, -0.005481681344552979, -0.05530469708952853, -0.19276733563160056, 0.2566139916882272, 0.15656306862482203, -0.1071077683062466, 0.0016586918050357042, -0.18252158028269683, 0.060769180792349456, 0.09843268915676583, 0.16046175321669434, -0.0207698652423659, 0.009190042008100528, 0.21524933208306019, -0.1920696446399169, 0.08404626216442367, -0.10055601268510664], [-0.056033247643401826, -0.0032181510015082985, -0.11771788956397747, 0.07269416795361675, 0.11124879771583564, 0.11986588367567229, 0.04858946161147693, 0.04691387122655328, 0.09364745021065154, 0.1624747998341177, -0.002998461218683143, 0.08488795686051114, 0.10197605958035409, 0.04357878677697007, 0.07325349047579635, 0.04104066060739541, 0.04724208370557453, 0.09580996683106346, 0.08140254805114083, 0.08389016224613015, 0.016021896307147423, -0.1173464992070376, 0.06719279124053905, 0.04557422727287163, 0.02464767849141594, 0.004753136208241836, 0.2001400910001165, 0.11029407478643637, 0.027319931228416378, -0.28496668478212944, 0.04518075209377121, -0.043264724644435856, -0.008515350296646637, 0.08517631932076444, 0.024033420253821956, 0.05957303781243738, -0.006794766812275736, 0.013905103519611366, -0.07214817591782237, 0.1841115939808258, -0.03270985967056458, 0.027648137204340447, 0.074659112974067, -0.1906245028207948, 0.0977184317931834, 0.02022869648426102, 0.024521757104087553, 0.10361566281427904, 0.020258744647352833, 0.023234378791632454, -0.028110573845640276, -0.011820044091279742, 0.11146907724197552, 0.0043712802126157045, 0.03646099281217716, 0.10957319523497853, -0.10401811583586665, -0.21364398038136798, 0.10276416162001895, 0.09944370793582648, -0.16169886645259246, -0.1862198776996569, -0.11018524412994661, 0.24633864382246082], [0.07734291601975142, 0.2255717304575421, 0.14142532890671142, -0.07929330719255662, -0.007244710605882685, 0.20508976805345483, -0.1544607285939828, -0.0277701561493059, -0.22281775735634246, 0.3237664911221846, 0.095453281707496, -0.24509640782517547, -0.20012632471475805, 0.05493256545853814, 0.04886891176669718, -0.03307060233996833, 0.005710463187249039, 0.0643969773891261, 0.016003048768754, -0.23914423268912294, 0.12236730291724687, 0.20647883069838727, 0.01998676179264807, 0.11649103087817456, -0.02842166229943451, 0.005510138234421166, 0.03105258176028995, 0.17813066587172666, -0.019048960180404476, -0.0345834465727015, -0.21134753267046344, 0.07023473817658289, 0.00957564865548025, 0.23652128058994024, -0.08214655322830672, -0.024702199181676973, 0.0006002987797161897, 0.11646526577204955, -0.1141831093476336, -0.0004381175084090724, -0.15435565212682884, 0.1094321849098412, -0.07126845173383098, 0.026326392911246048, -0.04866826194579256, -0.15174724439327536, 0.031085710073021675, 0.07761195296619898, -0.1441341657272319, 0.08414385229172705, -0.19192383408879954, 0.08684180977587305, 0.09731464859939674, -0.12147824793194192, 0.07930388420394176, 0.0867362515649653, -0.04438261806643413, -0.001229838545532302, 0.07180315210686981, 0.18737837567275076, 0.035410464768183304, 0.054559986517811604, -0.054912938174777375, 0.15913910185061542], [-0.0636346547909651, -0.22097433158284233, -0.1420404751966758, -0.05248826576902341, 0.1406379329997979, -0.060695760146437905, 0.02818279485893331, -0.01786119497444527, 0.1325023119703184, -0.12197563907691916, 0.10641052230295625, 0.08434064805767517, -0.013613735553936704, 0.12221753885371302, -0.10317871571936446, -0.10387194490187432, -0.11222153371415669, -0.06948428985763214, -0.15633148085366194, 0.12656521481924013, 0.11013160906044141, -0.13906964275482428, -0.11063584015485659, -0.03642394928416977, -0.14370185879317718, 0.08482088316355478, 0.03052296088876717, 0.09997743869931906, 0.03723574461257124, -0.035284428644262227, -0.0717628762961686, 0.01797506407911885, 0.11121629702178869, 0.01576717020505298, 0.07424458430350721, -0.01892730615179479, 0.0050568013363907266, 0.19451232643180147, -0.09341428091069669, 0.03187763221357069, -0.17768070426965815, 0.05792124358798612, 0.017000999501618347, -0.0723003351808966, 0.015820085190255403, -0.04236208243573233, -0.0061137086446927365, -0.04611153081375897, -0.19759464339840382, 0.14787331661225844, 0.024834891453627488, 0.14621152832004716, -0.13530469772301496, 0.06775715436710962, 0.1717174857110018, -0.10399170302537898, 0.10254401863064802, 0.018438423671836728, 0.02910017453168392, 0.29340499225745054, -0.07317832578675153, -0.07171344649609679, -0.11025817931123079, -0.096943654278828], [-0.13456506052744094, -0.11714506475991332, -0.007849800039497359, -0.03450332569263831, 0.09380349880188288, -0.21269746180168375, -0.000977652483164966, -0.13860822611097737, 0.3815037712585196, 0.1459548513095302, -0.23018692033554522, 0.05447911892314983, -0.12121451506318254, -0.01957624177964742, 0.05468779050573759, 0.026760440945163964, -0.09390279780687892, 0.03191012143108755, 0.023884965980801195, -0.18804027766409767, 0.3566098224329328, 0.22795352219428205, -0.15026955797872968, 0.0010507655885493613, -0.0261324909408056, -0.003521890259697894, -0.24948902108680573, -0.03361981831230444, 0.09563751947367323, 0.021816852644949154, 0.2544093577014975, 0.06298111366470688, -0.007242926296974464, 0.07716117598245102, -0.025875968975330923, 0.09598543038657667, -0.0016519176348861893, -0.21099409167728703, 0.018793622428110515, 0.09236342477690893, -0.06817880442816263, 0.017438654142474634, 0.09704966372147689, -0.0965879705223788, 0.22718122700416285, -0.1539326366113728, 0.02064026702479066, -0.0013681872621098576, -0.08746283327042098, -0.046379719145248216, 0.09550359022730379, 0.03243043025748885, -0.06662562414208795, -0.026274660538010825, 0.0039568739569584305, 0.1280962356742492, 0.019668523129065914, -0.1440904537508314, -0.23704457166049872, 0.16634563533200838, 0.2227764566240558, 0.014261464898658477, -0.02531550026619372, 0.17169901713296035], [-0.003693554839527798, 0.0008744076205442981, -0.15357134806852474, 0.20131567476500234, 0.051476892033834314, -0.199696296327502, 0.043090371373291615, -0.131218364256527, -0.05644296960329906, 0.198750399431555, 0.16622957697663854, -0.03627665301591898, 0.06386240196455598, 0.06992502900329063, -0.038820077410769156, -0.008136587282386058, -0.02254508529600603, 0.04420295018496881, -0.004427546661650234, 0.014193581054753572, 0.08167193618011895, -0.006993960718509832, 0.012767793425158911, -0.05000976096930831, -0.07001206003493049, 0.050838701014651, 0.015454492288878817, 0.03154732375582886, -0.13884681303236465, -0.04798450947124734, 0.019103587510120115, 0.110928104667795, -0.006778003959830028, 0.16760168814394444, 0.14628742697487995, 0.08778746967476539, -0.04177281022102066, 0.06364127194626844, 0.04756999125080964, -0.01869909806372359, -0.001355366563318502, 0.023909648571952023, 0.1192532555585334, -0.11611267972520935, -0.01209991004562662, -0.036275219295094065, 0.22064182181739908, 0.13175114079443198, 0.10574639825678071, -0.0855159142662807, -0.003604425693494762, 0.1844309871560722, -0.09717230896494232, 0.04961620682752071, 0.013856359580812553, 0.1421826855276142, 0.19876222103200308, -0.007024752980425895, 0.10782320955871758, -0.11784537611811602, -0.10838787959559168, 1.122333931360091e-05, -0.010210327265092335, -0.009206713632932179], [0.019193487967063085, 0.09765423954800988, -0.031596952328196384, 0.017724367461001853, 0.16315271974545123, -0.07524385730374845, -0.09089074203694504, -0.12343941661728047, 0.03465207034497807, 0.0927032575507986, -0.09750903892724738, 0.08095894523194651, 0.02972653414653294, 0.04370161387090842, -0.06496322519215464, 0.09652622890755648, -0.031472004327994366, 0.07652751031478706, 0.06821059222132772, 0.204693012267351, -0.007378110535062928, -0.3065524448162147, 0.07672127747949448, 0.01721092103690522, -0.026910749090632808, 0.11685881828407843, -0.012410438941267926, -0.03550061716368674, 0.05539193903666481, 0.11329992493325033, 0.034071964401695895, 0.04894173526403424, 0.06479861811698655, -0.036548632022968215, 0.035770537532807185, 0.23269306072222257, -0.11422017446378357, -0.024374656563753275, 0.1752266739044096, 0.10959682128066418, 0.12166713475891583, 0.11583403555782706, 0.1399829440286495, 0.00289496801352983, 0.14629946102222854, -0.01743188887599308, -0.08107608323594338, -0.10568796233356975, 0.15394007791767086, 0.04970939832995005, -0.0036716442387237187, 0.1297485483397192, 0.17701941880572078, -0.04871685462073313, -0.004751856015461599, 0.18820785812987684, -0.1721205488431144, -0.09650674222301059, -0.03442012376353662, 0.09619400126879901, 0.041697606162582765, -0.2248214758152481, 0.21924535525115862, -0.0764517743421173], [0.11269553697881624, 0.15418544831733677, 0.04219016506528489, 0.09137476223800035, -0.008982573924892788, -0.13578189414381134, 0.09376604740488578, -0.0861297392173321, 0.05943618556078706, 0.04674112436970023, -0.18745005737352993, -0.03469413247880465, -0.1196102371427652, 0.18010597372970769, -0.1046645410008828, -0.11750358824049359, 0.025606451708923214, -0.034448135676845654, 0.04653391242374129, -0.2238390620861534, -0.21721270943189816, -0.03078134097889408, 0.09539278518777143, -0.0876107724801746, 0.33038268262717313, 0.15988263778681294, 0.09339804294418515, 0.01166115528801871, -0.04402426475724352, 0.46015218771719973, -0.1758362357775079, -0.10801044484641222, 0.08127590361190312, -0.1850774203335497, -0.02739455867556485, 0.12387589435164283, 0.06364391046495886, -0.17015308420518277, -0.02676016448635961, 0.07037162209468326, 0.11352948346521993, 0.020167732345961698, -0.07300535132094053, 0.12275775650856287, 0.019855119182857324, 0.0885843434066404, -0.06977740280191344, -0.06867295291711105, -0.028046602299123594, 0.28475777516200784, -0.030021447208107295, -0.04301559927837502, -0.03515255643791629, 0.09569600763450006, -0.02703026276471669, -0.05520478260935538, -0.06644429441200375, -0.014295210310123811, -0.037019267530888966, 0.07325570657505173, -0.1536952124593213, -0.12772363818093466, -0.03283628164498671, -0.1835197212231573], [-0.20196066370367563, 0.11213194276376237, 0.22455065747245012, -0.16727800673670642, -0.009327766367276833, -0.0979315627924065, 0.08975126115896298, 0.03497469179130695, 0.08130410207721092, 0.06266247664803354, 0.026850635343022327, -0.09425888338480429, -0.0412311400849521, -0.07156648534532538, -0.22885635910146032, 0.126096507487216, 0.05636165830670835, -0.04529106425167243, 0.0460900034166837, 0.01879793524252473, 0.09839260621968267, 0.15651023862863359, -0.1145862070616392, 0.16270154207842244, 0.009371627729872895, 0.07540398804729884, 0.021103587110187703, -0.026087530212743303, -0.024476699583190726, -0.003763937591827459, -0.08033303929490165, -0.19008870245189963, -0.05914325960783317, 0.0276373653950553, -0.15247938699161043, 0.1998246776173252, -0.12991330985637203, -0.029429720432750963, 0.17018455211051092, 0.09776663304073421, -0.09341993446022649, 0.07578676102776809, 0.11635524980022235, 0.0798264433768458, -0.07101340395049575, 0.03409226115000175, -0.13259388708125477, 0.05878549685390849, 0.28750016436196846, -0.03283495073442153, -0.002413710145331928, 0.020108750715476256, -0.20953705296913552, -0.12196346700829276, 0.32944547867708635, 0.032247685152960906, -0.126862816418375, 0.015070787012508552, -0.05807740190126649, -0.24747948937619163, 0.06600791748151177, 0.07103744511710747, -0.07362086984512904, 0.05798665197077338], [-0.0005098853287405681, 0.06024061832884082, -0.08387936263697691, 0.007445845473959191, 0.03265482503584712, -0.2815007764309802, -0.08632311271168885, 0.11121730752149091, 0.1052652080635108, 0.048087280751428485, -0.07342816519900165, 0.10734094765225613, 0.18475838087772967, 0.015235056453748919, -0.052055903785847145, 0.1269750995509942, 0.029967272769333426, -0.16102474476702866, -0.2517832758926437, -0.18045488082102482, -0.022362153472213903, -0.3125077322268769, 0.08056592297371977, 0.19783751324533239, -0.036581702412416386, -0.055162685919858116, -0.13522833748172963, -0.12609754669431136, -0.09597026300415709, 0.16658674456217848, 0.06495435749267722, -0.11487475856238402, -0.03506245444227082, 0.01905560511614796, 0.10345010669249428, -0.0850012485107366, -0.04131481032937041, 0.010628339021489016, 0.048822090429386254, -0.2315565484794027, 0.016022136851261064, 0.008859502115364211, 0.10898216130693023, -0.1509586539814075, 0.19317185379103677, 0.16372522257536112, 0.09437848212435312, -0.040337908029393785, 0.06621662963380884, 0.21528772185081319, 0.1386313843847493, 0.06489653445160244, -0.06177764835730455, -0.23266513725451438, 0.16244938576792176, -0.09426668656331522, 0.0908190066178808, -0.07195223458878816, 0.03604617107738043, -0.048936884755041966, 0.09501253056175514, 0.13755252463130327, 0.08791561497816974, 0.0595056360775087], [0.04249456569690543, 0.20064353054100215, -0.006891652220799205, 0.01939135526699906, 0.10652529765619206, 0.012891509605871687, 0.18921184387786105, 0.033737706970404346, -0.0632743300045934, 0.03795025103199728, 0.10988668161246701, -0.1844312619712947, 0.010620238763353851, 0.03095008582822598, 0.12912744901700604, 0.04753099271608213, 0.2821374719356631, 0.03879765442133583, 0.058192661159673434, 0.14402079432086465, -0.2000737203071514, 0.16259641527922913, -0.06957487482335699, -0.05381045388879125, 0.1160582331742211, -0.01681919852531114, 0.20884317526335416, -0.11885929210800156, -0.0570751221206549, -0.035544846386398245, 0.20726186244085823, 0.003789237962903073, -0.10133784361243257, 0.17563064290384922, 0.07199252158535675, 0.13751811881549497, -0.05651691371714449, 0.02403877089255035, -0.12049582595514538, 0.019514555750022856, -0.13422174293363479, 0.12251285700066886, 0.027707503158830055, 0.13516315261552989, 0.06589260786168831, -0.06306811518194595, -0.027908941944281444, -0.1019559989138044, 0.08978488525675885, -0.08237198264615939, 0.30564295474827274, 0.017514362769724862, -0.0950396837803431, 0.2683162500199208, -0.10837898580164923, 0.030170920410690704, -0.15118643184386246, -0.06266470275410266, 0.27954747444607014, -0.02062417688000815, 0.04127173861451661, -0.08818594461864915, -0.1606831634666637, 0.08451321611529798], [0.058800721996698675, 0.12113301045471475, 0.005187586658406005, 0.1677586008487944, -0.07833390801471775, 0.007986501692905776, 0.07266775895519592, 0.07116899317407056, -0.04390991107789232, 0.15515909952567059, 0.1596661551478564, -0.10589536539491497, -0.10378379817961653, -0.017894425577364866, 0.06777923825020879, -0.08576937849352219, 0.21593558252042316, -0.01591063531963154, 0.08330752149141825, -0.25606968455939233, 0.11650309278495602, -0.1479030549423477, 0.01231958551031316, -0.14389676403176446, -0.03708927595786098, 0.07907889470605411, 0.023436092955488378, 0.024177489375179773, 0.07720293480139233, -0.05033752545361014, 0.08606049005157658, 0.014178503155132279, 0.13963431334359827, 0.1802296988887563, 0.11325315069077829, -0.04340398298641364, 0.11854783142338521, 0.1072838469993551, 0.005706668592926311, 0.02751870920524692, 0.00787786069617765, -0.11225019421327215, 0.1235390131933093, 0.1860557837576402, 0.1676585587251108, -0.018285470816461688, 0.049250352873470224, 0.040135267524645385, -0.012654262020537418, 0.1042408765359992, 0.059057785361574223, 0.07115826338915525, -0.000943517128598741, -0.057609038809445144, 0.11533819357890643, 0.028167268884948925, -0.03544261213872932, 0.04080884118341176, -0.16716744104459716, 0.13998988995259803, 0.18676464764498568, -0.06870371818644343, -0.06762047053093673, -0.20837591039861375], [-0.03023155747000484, 0.010773512115941847, -0.23016653029741982, 0.08985005554034563, -0.03784005378501661, -0.18727568936080904, 0.10593558804846762, 0.06628387344889951, 0.20393157748060178, -0.017067780873433733, -0.2345055474456063, 0.06475612051486634, -0.15937911593127785, -0.16358822814494636, -0.20866421281049685, -0.03744870817741289, -0.2129115311412237, 0.08862416522064814, 0.0695417099014968, -0.1114215867741085, -0.024938274903575565, 0.043281078795502935, 0.04741364976053389, -0.023162011108442078, 0.15628627342356327, -0.23668394496063022, -0.11026283775522423, -0.05830974453674943, 0.18577826309784182, 0.06094628808107908, 0.14022786542519564, -0.014268754689473433, 0.06830566218971706, 0.09608088711984196, -0.08028722952534063, -0.07834521100973417, 0.02925482193358673, 0.13169444146527612, -0.0035217767744332527, 0.05727384236948148, 0.08237719201232266, 0.20909605590237407, -0.030516899667769288, -0.06440759121088992, 0.10373087662503731, 0.012116712085466745, -0.15900514016268807, 0.013222768217442355, -0.12073347585719887, 0.07582675492559088, -0.17432743432706294, -0.005177115930523513, -0.059074493956903326, -0.034152430785556576, -0.08622208396205477, 0.1535669321692799, 0.06330145720008912, 0.10384899590826933, 0.06452620905308107, -0.17608674364520147, 0.0021423664640901315, 0.2059419811708841, 0.1518701520300996, -0.03609483459667088], [-0.10699742911421102, 0.0442583713671164, -0.035660970031393784, -0.028910746082026966, -0.09225654697902237, 0.13068322967788842, -0.04295466175725902, 0.16519062984397592, 0.15050184076135675, 0.06699626734188797, 0.17238808557801263, -0.08951277396599422, -0.08557788011821597, -0.007592373198630978, -0.014353042825360231, 0.12405835177126127, -0.19680096459526225, -0.0802268869442498, -0.074533726481473, 0.23259720893059, 0.020536951809994434, 0.09338893244278684, -0.24846879464051846, 0.1143184407049988, -0.09886347956048837, 0.07035748291938389, -0.18392958566473852, -0.13459277561130092, 0.07457892056736647, -0.14265076709817642, 0.05729760352436468, -0.15360208247582266, 0.12535678880234655, 0.2414009544800428, -0.23603931305579853, -0.028721141243284263, 0.17110021675264492, -0.007269437968950509, 0.1621945501412798, 0.026449316360321485, -0.18188173563946253, 0.11282366062980713, -0.02252055203342953, 0.05720773504103202, 0.0657560189895024, 0.05812961901092931, -0.07273259553571329, -0.17498610762870143, 0.1795328085136859, 0.14751275529107652, 0.018351904811013228, 0.18785795581761705, 0.014338807840065089, 0.06033693832510871, 0.04392395049391778, 0.030086240809516517, 0.06224474891824051, 0.20437534307703017, 0.07123858012085835, -0.013477186901848992, 0.1205935632388555, -0.06604916850470975, 0.008136866348794864, -0.1718705768579169], [0.025375752079581333, -0.17490612880014267, 0.13553156856564072, 0.11170932146189556, 0.19355876341949407, -0.09450729850901335, 0.03616555752890312, 0.19645548420604858, -0.054884071558049204, -0.02103242885494922, -0.1357498908598842, -0.015554025566727738, 0.08505389664461319, 0.10729611238045587, -0.31889842652103434, 0.1868600452055058, -0.03537747456888377, 0.082103669544955, 0.048008494032062816, 0.25994615039248575, -0.01704953176173828, 0.0589293223050092, -0.07570552153017754, -0.17297681666771864, -0.025391050182403226, -0.05908663513672148, 0.13154266391321345, 0.09374936837882339, -0.08697554801692325, -0.207787796617211, 0.09599077527372261, 0.07580596537540478, -0.2134597938765487, -0.030380671284856414, 0.15125449317028072, -0.060915547911630355, 0.2037170357349004, -0.2919071834617968, 0.09463721313649977, -0.029513207254954814, 0.022633968824018837, -0.26058949270161974, -0.010985786864894077, 0.15916820162626014, -0.28701792856319003, 0.2657430821688568, 0.17472223389687003, -0.15733336576929427, -0.13479388333587855, 0.1795895703721637, -0.207285929907116, -0.1650243979988577, 0.04024714680588849, 0.2971877113142299, 0.13868078739600853, -0.09859582744433806, -0.08487427528468983, -0.10258973114467813, 0.16028470402762637, 0.2968247602850999, -0.11298389043034195, 0.12459207448131157, -0.043169947440450634, 0.03548813423527577], [-0.08529651735529038, -0.1363921617833653, 0.21244463055554633, 0.004414320993807839, -0.011620861421549767, -0.1023691779718707, 0.17702701582988573, 0.10356783165396907, 0.13606894071913678, -0.19654013628143405, -0.06966809593387038, -0.03412701690690489, -0.0046353386484039, 0.2879263913606905, 0.2730866598514935, 0.24114028412462105, 0.031563601977441964, -0.10072944592144424, -0.019744289417764477, -0.12129146776537085, -0.047186892123754307, 0.018936428890123053, -0.04648927696655085, -0.05552522984127354, 0.11793564578309261, 0.07191565807303356, -0.10159196182829665, 0.1275992004459728, -0.05791228550634963, -0.05730870550599366, 0.1206994178194339, -0.1417443456025085, 0.03369106314262069, 0.06394522738704211, 0.08918892888791188, -0.24842917189567473, 0.14462061380940783, 0.08395535041329893, -0.12192082795377496, 0.16617839462890655, 0.04728188433459498, -0.10047910448578071, 0.11688859642370282, 0.020350533469856942, -0.000629766269507297, -0.05622075532537739, 0.10420084749583834, 0.12684220936109614, 0.040915039685063534, 0.22310139619000818, -0.12112501167325958, -0.12410275454188449, 0.16799345433025564, 0.04348770308108735, 0.10502745352536103, -0.02988668329160202, -0.07901551943511324, 0.09724903920058468, -0.0815842699624998, -0.13461941855233212, -0.0020441698355114415, -0.1450935144071265, -0.06875671192383963, 0.20464659170802654], [-0.0825784493637482, 0.04579035902127558, -0.12771543835061247, 0.08849194520514911, 0.058775328038916566, 0.015229777045307848, -0.25734780834612947, 0.10261957003785943, -0.07848715775911895, -0.11367599283264185, 0.306773587690049, -0.26434337790800655, -0.22609513547739973, 0.13440764637950542, -0.06798329880443672, -0.2807318022953939, 0.06376394180359603, 0.07222768399430338, -0.07246591620130148, -0.13690193610262108, -0.02825428530723589, 0.1348788268363772, 0.09772846004305097, -0.05574869441832708, 0.10401162661081872, 0.15390688569832683, -0.08965137849643116, 0.016977364309911393, 0.20359613230479848, 0.11662398572679607, 0.2829684733725144, -0.021818446199556, 0.18240517032207954, -0.0925721405137854, -0.09029221297595615, -0.02367725480927268, 0.04286377526891874, -0.16150611038560858, -0.0004895287971234489, -0.1654913005808554, -0.1359317133701418, 0.07008238529153046, 0.13087831959892784, -0.21694857233733258, 0.004668798225943627, -0.013393237286493562, -0.14783688449346793, 0.021000635085582725, 0.11819140353967428, -0.06588607672596698, 0.1321888971690151, 0.025263736070610828, 0.004593514381226307, 0.04281261604942682, 0.006856033513994692, 0.05556867365955565, 0.15265943499198406, 0.0061701734766840466, 0.15254467109807815, 0.15333332056506171, -0.00487081705897646, -0.022102034629307914, -0.06286176211676414, 0.10245231563114672], [0.21938318132948598, 0.027560701561246397, -0.20280570119967825, -0.08758662520997548, 0.14960062096929647, -0.06140267407662067, 0.004380902975364906, 0.1521736926544869, 0.029550427904837563, -0.08358282911629722, 0.06595035419470285, -0.12246955602086307, 0.025231736248606074, 0.11967919986269557, 0.13162019310444986, 0.08010844490812906, 0.19831432811669536, 0.000797415200139438, -0.18079701760985473, -0.011981767431171386, 0.02781779892894069, 0.0467778832056858, -0.026309875387735257, -0.07224582441895015, 0.04062402518631177, -0.12080606850440657, 0.109582299696915, 0.15650278082092414, -0.14359586893189125, -0.06934577640945101, 0.1556177748109704, 0.07485415608963338, -0.16637454322292633, 0.29695232049323145, 0.028016671520242873, -0.10357579647364508, -0.08127645692088918, -0.031034937890761543, -0.1883354615064674, 0.09050874786203103, 0.28625154233017075, 0.009132959865748783, 0.020398119801315236, 0.03879609401918191, -0.05607987826313796, 0.07400068763035603, 0.08022763257685216, -0.08854033398791952, 0.11307428555869341, -0.1374181559008421, 0.09172460381015467, -0.04688410303221376, 0.010281046036395663, 0.049770985793257935, 0.12755557568096387, -0.05959405564957755, -0.14593045148680475, 0.004780617141424876, 0.0508162955368356, -0.10089349238909416, -0.22125670904366643, -0.07146192908870645, -0.01348929031418756, -0.06548276500483576], [-0.26899464476816365, -0.010604338471340534, 0.08227138303564555, -0.09164063026798051, -0.19169203724200232, 0.0100764941158358, -0.1183399358501409, -0.01079035207292979, -0.04908205499052229, -0.00581913257387273, -0.0219733754998186, -0.20713928445073243, -0.06139819027098539, -0.06999888062796254, 0.01624275878601374, -0.14351520886202707, 0.003586958414958936, -0.2075821285212803, -0.13685601337877873, 0.13254503216347047, -0.2412629876861861, -0.12441588187466474, 0.24616823880613467, -0.09504543075657211, 0.022945201211299403, 0.01149236645850556, 0.2559820325012782, -0.12490010377401274, 0.1294038620334539, 0.1448128286517506, 0.056475918249400486, 0.17270474578870026, 0.0501378921751095, 0.05168913387422336, -0.0047364955232754484, -0.04175653976520761, 0.03880301089680128, 0.15413355159803738, -0.0007577434543922301, -0.2276229725423062, 0.10285696758604781, -0.1948408940929215, 0.07107018329252672, -0.013393621411707333, 0.02655885905830906, 0.09713692586016962, -0.010430686960576785, -0.06289511862204183, 0.016401402025488936, 0.13174498313554464, 0.028560344673861725, -0.12363882232635975, -0.21207911256265408, -0.10197381585967523, -0.0204048371604823, 0.23394536424583764, -0.0052246719736558185, -0.148993823619663, 0.03150483265173292, 0.20291688267048452, 0.080041729476724, -0.09986081236155776, -0.20517916522894433, -0.08861293797045607], [-0.19533037870775222, 0.12249777204188741, 0.05180309137842538, -0.08925510020853988, -0.1329779101835014, 0.08133018884805618, 0.12162885898173603, 0.034943318652807524, -0.10267931109468686, -0.004038152237794785, -0.04572485236992721, 0.01574648115294813, 0.01686477656613028, -0.10449666814125781, -0.06475088454983961, -0.020830119405204784, -0.11986381822589831, -0.10569303701112849, 0.1553135829550335, -0.043463189675330714, 0.23712003807260937, 0.12520287108889588, 0.2778987095624901, -0.0025782544677350554, 0.05770679708986746, 0.1800346926099546, -0.05994994689522829, 0.028215656454017163, -0.06519193078286954, 0.0006731136978566227, -0.06918359543600838, -0.11976358522266746, 0.00849872474904666, -0.05522456125597318, -0.1481825325995542, -0.11494825466223861, 0.02627527155580512, 0.19403797880708673, -0.014800039172128573, -0.05864104050175516, -0.012129756633338328, 0.06901712476846565, -0.010828483739376726, 0.08717683324095202, -0.10424944930059953, -0.07655789088520835, 0.021878830097696964, 0.09115335656025715, 0.07414037556480797, 0.045772978452444185, -0.05607541977363915, 0.04955727699209017, 0.14224783572580463, -0.02131054992724955, -0.0965980138330241, -0.20690808368748792, -0.23971938976370555, -0.2283676366034807, -0.0004608897417425798, -0.07024620807401198, 0.003983536711248176, -0.1543962659236991, -0.13169440891356288, 0.006403204811556193], [0.17235624662818014, 0.12389431370062924, 0.031103371492619235, -0.1120363714211373, 0.027707712531188422, 0.003315199510338131, -0.08897071118618427, 0.02101480421904088, -0.012553934467905573, 0.006057105407034031, 0.01876245050913525, -0.010254894790105946, -0.16666446560229697, -0.0037527829219297696, 0.13832727400432696, 0.14396031311226146, -0.09758522269230747, 0.04687660931925863, -0.10406887206714628, -0.07742194943124764, 0.003104442098737674, 0.10620603614416207, -0.14929480992886057, -0.06206366573516663, -0.06850577537978773, 0.047944720035727854, -0.2020380270852668, 0.015415485232491559, -0.07190253787863206, -0.029031199908477977, 0.13456008007509837, -0.013542595437879007, -0.09995312844046525, -0.29993415144963154, -0.05993100900705694, 0.13880737308174318, 0.018311925735540236, 0.1618881354801583, -0.12168482817817891, -0.04022875020358651, -0.1984493874412972, 0.025485110252751287, 0.005696812003461212, 0.2161864910391141, 0.049728643998039855, -0.05065931844351267, 0.049801611427249405, 0.19304155779763568, 0.1797447758516322, -0.026607641611425155, -0.16667001426631523, 0.07366958666865529, -0.10717386709358695, 0.006681739167118344, 0.11135695849605699, -0.12121360616761896, -0.07534663957955662, 0.041750366525662524, 0.1786304282910196, 0.05527887385815051, 0.11167346315041794, 0.01803634736859796, 0.20263575424759947, 0.12113725329621687], [-0.2376811304480239, 0.27516481100356843, -0.011521636190736113, 0.10835399440256416, 0.054103756722849096, 0.002506099468772106, 0.07027196367125504, 0.11770788867461694, -0.015005125433948274, -0.10297506206288953, 0.2341567674119642, 0.08307762216824498, -0.0028056332647906, -0.05143839761000771, 0.16155608894487872, 0.08274471174077008, -0.14989595769574038, -0.03243459705442582, -0.045393193842920565, 0.320531965041759, 0.0553216532735774, -0.08170186114655775, 0.031929703041804994, 0.09084158437825528, -0.06994972453529687, -0.12712611136078347, -0.02005039102187079, -0.10886759324794526, 0.16712898355186342, 0.11818239118372871, -0.048099136634307364, -0.07982477147429244, -0.012575327606670154, 0.02854885421138235, -0.10474328892922863, 0.053756631195597905, -0.11656982217398215, -0.1858003892356432, 0.039286579918673036, -0.03311482299299346, -0.07339625879306505, 0.010930315017788057, 0.06902351360514092, -0.14475018014268315, -0.0911177846977469, 0.05398314625598418, 0.18938849357294782, -0.1805496424755245, 0.11648100896027305, 0.048268400971587994, -0.0757140756633764, -0.20496870233733566, 0.09258995667143734, -0.031400964624317206, 0.05714763736449602, 0.026659940448739535, -0.010812872636885292, -0.06218474011930328, -0.06358500400959982, -0.03898891677256737, 0.080473696294363, -0.09713730388291798, -0.05597847629792544, -0.2306956609657972], [-0.09203849236989593, 0.2570617650447811, 0.08552856406865454, 0.0017877181314423483, 0.02466505767888745, -0.10201171904994176, 0.20649146910570731, -0.2565850164696887, 0.048776076644843264, 0.13449367316855237, 0.07153062306383047, 0.10088518160740173, -0.12419849298503344, 0.24432202377199863, -0.037598138183455, -0.1047356469508423, 0.0184784246275587, -0.01034990269044896, 0.04089466611805014, -0.13437610215118823, -0.059524623823884175, -0.1099379965813926, -0.037881896738180126, 0.025905107914353808, 0.19819194681589522, -0.04042379428228858, 0.0160241104890455, -0.05511611981456053, -0.10326984237312571, -0.03598675528534498, 0.0057652089867022355, -0.0584971569698655, 0.2483334582124477, -0.21563058411550987, 0.058316795404176856, 0.10270204098597023, -0.03004691901323843, 0.06227924468357161, 0.10911660488297716, 0.0379077671006808, -0.01810835310583754, 0.17003645863335845, -0.07327197387166415, -0.3902507941071776, -0.021771011525802998, 0.001386194215831363, 0.08398864656686202, 0.03017680344086981, 0.20000066220371548, -0.01052211908172069, -0.0008435525075444073, -0.1853218229200701, -0.15465797413841448, -0.20192508576249463, 0.12081864707223745, -0.020474834325840723, -0.08019690691412273, -0.05472252398378864, 0.02350257796635891, 0.05553572598317941, 0.02218632086602475, 0.06222673934381393, 0.07845805669361453, -0.07118126368047355], [-0.19276510534974906, 0.05355695846831941, 0.06431012063041747, 0.02713461040066616, -0.10529908921300289, 0.16344850537275238, -0.06285460468719924, 0.07442807336458024, -0.007953004033441447, -0.1056238156041684, -0.03480028611755249, 0.10495715720806534, -0.011236842188183629, 0.06023266056378311, -0.023355762608668493, 0.11776252467177391, 0.16893612043622497, 0.12514652555528538, 0.06719068276691129, -0.19488707816854564, -0.2011568985732964, -0.172007975747567, -0.04210599563704009, -0.14609411169071562, -0.14586691445079428, 0.047089980420304996, -0.013930910086228591, -0.12928059638986583, 0.064269291042719, -0.05440031871914683, 0.04980920797525938, -0.0551066528047153, 0.258397318787734, -0.09792151290924272, 0.033955976268588456, 0.0574325487973456, -0.24141020838316984, 0.10962053689177488, -0.0547130710277907, -0.12155968947413073, -0.13169810250248043, 0.2436851087311563, 0.06601460929331082, 0.07262835134912275, 0.08790360001691368, 0.12268868115333899, 0.050406724730419884, -0.0872092623492983, -0.0659600657246557, 0.1852834236098028, -0.02746895793810489, 0.13406249286279454, -0.12912571755362964, 0.2000370430507203, 0.14785376085488594, 0.1742742064865146, -0.0463525151816646, -0.052572291148379975, -0.13403537869156762, -0.07078697757633026, -0.13658878312150513, -0.21093337347873534, 0.02688590249333309, -0.10933917744513533], [0.09277527516479285, -0.10856445574024375, -0.09256656656137788, -0.12330784810983163, 0.2692764349900879, -0.28823037946838553, 0.029624014874369196, -0.007784518252382493, -0.058184061273112514, -0.22389007053779206, 0.055892341166884366, 0.28680745994325996, 0.022197133119104314, 0.009083467785304968, 0.12894208489465528, 0.06998741838782492, 0.15371380452562652, 0.142365042527901, 0.2141188967223048, 0.2518593316898774, 0.023292040792995357, -0.08750707461747269, -0.07428047187364258, -0.008927973384910493, 0.14312652540267312, 0.045410054681030036, -0.1870688037256378, 0.07394621544888426, 0.10977646578460436, 0.1359648911001872, -0.10499175406589657, -0.01891274518830131, -0.16678222718540034, 0.011565716226904528, -0.008575381464815688, -0.020857306908069632, 0.015157039061275582, 0.03145804232969735, 0.17834793276018446, -0.07638881127499554, 0.05005591210841126, -0.039856450349612584, 0.03321818067772944, 0.09380693019567668, 0.16840275315183656, -0.024306228731458556, 0.060419894981477755, 0.1605272074769778, -0.1251767147234783, 0.07152326829593687, -0.04190876496330655, -0.07046687685200743, -0.23498511804386618, 0.03313609778719531, 0.11364273559796634, -0.06057089733206507, 0.09764663420051956, -0.006854073101990734, -0.03029971560254432, -0.046125231128077405, -0.21904193535550684, -0.00895007894712319, -0.05052216005633359, -0.04902545447132305], [0.005484419673639003, -0.08402353799541845, 0.03593597232225396, 0.19902775078339907, 0.005321732632920932, -0.061866391045619244, -0.08932630088739556, -0.0014002579158802582, 0.19877442169095277, 0.2044024137953603, -0.09606890982183368, -0.012050301659640841, -0.10717169997814423, -0.03073143999950532, 0.14397736927235127, -0.0930521315306839, 0.0062547544807485785, 0.036079456140089276, -0.11958645204472285, 0.1726565961495257, 0.05761818495048677, 0.13479208982195962, 0.022308333354582537, 0.12524165040829932, 0.0031379238325379205, 0.15399570113795194, -0.13089201708960235, 0.0060363139846322895, -0.1561421197117962, 0.022340955814736697, -0.26086121699776516, 0.038854395609948925, 0.021903809246288954, 0.14385686173269274, 0.0834154637646475, -0.03914267785757228, 0.0537045511995302, -0.0014346697679331407, -0.17567186357662157, 0.0628928290947904, 0.11147868832636869, -0.07937673317029621, 0.08840750835032056, -0.06786464043732078, -0.1812569168297603, -0.09644487917729133, 0.054361160823785455, -0.06867784723733347, 0.2082060821831743, 0.06442416310105605, -0.06845865242673349, -0.042761495947211854, 0.0421025553183856, 0.08322998368819566, 0.2911366234431197, 0.11307234448359169, 0.08178542631594743, -0.20957998374592648, -0.03223271964000998, -0.04785042367768534, 0.22628686236512718, -0.045814520010918305, -0.050815103602254684, -0.012710187276501824], [-0.13879602389088383, 0.048698256309688694, -0.10277791374915131, -0.08404012800535987, 0.107810748797037, -0.033041207769506066, -0.007687334548780968, 0.08057282153546973, -0.022485489299978807, -0.08947670451989238, 0.04068985698548331, 0.08906359675311824, 0.04715813994216278, 0.01057811004091079, 0.11555435785006307, -0.14793180620763713, -0.2938063053799349, -0.13855417872352302, -0.16480217635146388, -0.049990206211359994, -0.15060851803322814, -0.036344196612005206, -0.06847250643747071, -0.22033635507543337, -0.16268077181903146, 0.18792930687015588, 0.05312909026637753, 0.17912742412588056, -0.04055924670465696, -0.16614619420361557, 0.0816657531883439, 0.027467738903206702, 0.16024146735004305, -0.05590673335320579, -0.0015688432822007871, 0.2167531663802654, 0.019669483121677458, -0.1421166756412579, -0.19685322755110332, -0.12268965292534972, 0.0031962603258335453, 0.051464572255068605, 0.07590725807481954, 0.12509231538895385, -0.13422312775624395, 0.042325882830986906, -0.027141104836368158, 0.11004091669513295, 0.22795897458741052, 0.04897162064222338, 0.011526642462745366, 0.07551161715014024, 0.04262063065811477, -0.09354881534791847, 0.32242507949968213, -0.1707182110108804, -0.19529047907426733, 0.2232145742189091, -0.03559883211081327, -0.11836742244021735, 0.027252141149086608, 0.03547318374509699, -0.04910235367383129, -0.05736659027458398], [0.10622841565118554, -0.12198520200612176, 0.06375845024273796, -0.18507359483501623, -0.1750163688606491, -0.1398614198881411, 0.21167014339065024, -0.15078771043479536, -0.15945665559002423, -0.06511294374810629, 0.06398899081483471, 0.18090320924011521, -0.06045749927538423, 0.05343855645624057, -0.2071721004933015, 0.006699659606266852, 0.09531513261285672, 0.04073679298860272, -0.14854126032209689, -0.06174451029675219, 0.13652143519676208, -0.19924446875380886, 0.13500916420564885, -0.10084081395180146, -0.02178577075647275, 0.06111698972548729, 0.06786086436961461, -0.06299531235929186, 0.08440246193603111, -0.11104738516472673, -0.09664459357298313, -0.03691597013845728, -0.07456364132579084, -0.05792461813862056, 0.1957784894865242, -0.14772329875781123, 0.09521412966391722, 0.031036426452182665, -0.14500819979390087, -0.02199744251699361, 0.04872679224171298, 0.06218233365674412, -0.04321978186435457, -0.03548505874601386, -0.19136627423213853, 0.15659692119661967, 0.015247717417680013, 0.20984850815709188, 0.0274807592606434, 0.17721510749283986, -0.3022051269111511, -0.2950124519354985, -0.06658176733106161, -0.12645134907454028, 0.12661300002120796, -0.10819141423641149, -0.23410549368996073, 0.06920604532879414, 0.1770667088324407, -0.018902157011326137, 0.15369033400963164, 0.14927409768958086, -0.04986628765404155, -0.1412656013427746], [0.020286059532291408, 0.04605016824662622, 0.014502639150995691, -0.04512849214025824, -0.195976830932283, 0.09130871109977573, -0.09829963342926083, -0.1016685212289344, 0.10083787581909588, 0.060216471323389496, 0.043027916440674954, 0.021793647944052807, 0.06031343875793938, 0.1100815843165189, 0.033232660807311, 0.05994702717401917, -0.06054605724266481, 0.05528201305814085, 0.10579030083471892, -0.1440626729538813, -0.21697278124797956, -0.024880225143783363, -0.08874715446391448, -0.07549624764583485, 0.0006723248022798309, 0.17074576525288634, -0.021377666550096812, 0.03340648123014913, -0.11026506191074983, 0.1110727789744031, -0.10258200536834103, 0.008728094828262882, 0.005594716886502849, 0.13731199630454205, -0.0939061525537777, -0.036183333071068746, -0.16068052800413615, 0.06088764112165214, 0.022073371427967666, -0.01056566334982386, 0.004213280212223749, 0.011491739308107814, 0.1731884600505243, 0.2136677956254408, -0.14007413214238687, -0.03553920161088844, -0.07983429393457374, 0.10684428921937297, -0.12630276614949065, -0.10521623925747481, 0.20589458524813703, 0.0765995493502125, 0.10221575431755903, 0.05690104001810015, -0.12803505813423213, 0.00628044760787738, 0.20541831181430048, -0.15667362474841232, 0.001870234937696875, -0.05202243101484717, 0.14073826568420744, -0.0630839695695554, -0.003297079028810078, -0.0746507387936557], [-0.02329248292075147, -0.009971595461816859, -0.07456079669899926, 0.03834101258939385, 0.019492244301213178, -0.11839022750402714, -0.17375169348654992, 0.1989539171196699, -0.10292507766892936, 0.154952457086764, 0.13934956589841233, -0.17108623063024975, -0.029992430860424933, 0.2264205726633761, 0.010938076960613595, -0.02310056040284758, 0.018691442383125582, -0.10318704192817418, -0.011169613098315802, 0.011088541143449574, 0.0025496637840339434, 0.1041465615157732, 0.08632297825326889, 0.3189849766690994, -0.06989019155901637, 0.029931072667622467, 0.03144457744864937, 0.1308349550790402, 0.14738057017101386, -0.11139660510324506, -0.04138242406920697, 0.1404016438144604, -0.09576375613632707, -0.048641668640187485, 0.1518928805547228, -0.09569949023155556, 0.05924245090832046, 0.039868032905393334, 0.02293085111351015, -0.053974600711787994, -0.02670602780269838, 0.1789407151280242, 0.07130577439875352, 0.14331443304225122, 0.03712954249394288, 0.004035977768721989, -0.04703189818110299, -0.23755970345368393, -0.05463403327710743, 0.03981941213625913, -0.09084570287859373, 0.12359140568999967, 0.09830740406045017, -0.062038245357709625, -0.10846191232892669, -0.1001532379299422, 0.03659061120156922, -0.01880668809056184, 0.09714841041008783, 0.14779714665774812, -0.04287826201691273, 0.01964610082162151, -0.17163607839547365, -0.07678503642836416], [0.05065133086640934, 0.20231930645430682, 0.000687892642718228, -0.0236594991914692, 0.005093012866492997, 0.049520957576915124, -0.08329460310505273, -0.006651806697903748, 0.011860807806824442, -0.05876857659091117, -0.18631854152218869, 0.19571673513566423, -0.0486430366887434, 0.10379643926383135, -0.057203326069517904, 0.08171747131220321, 0.07887316809879356, -0.04314476887555669, 0.06667944150327311, -0.07255775926286913, -0.029333137313586832, -0.15882999745014076, -0.08910036619668651, 0.14421530027519902, 0.05501384572562936, -0.10629700788243518, 0.027578271843836953, -0.041103132894495534, 0.025342494809975726, -0.018941013363158427, -0.08776566729354815, -0.04741749016962717, -0.04694060700731495, 0.010510158179839761, -0.07618888911346149, 0.02385139041500805, -0.08994321736508167, -0.05428558160607581, -0.023581707388855642, 0.15542531141842805, 0.03329811352203045, 0.028163552624196345, -0.11460638552319934, -0.06817494406716786, 0.2310620545936299, 0.1083053328243352, -0.27696952248976187, -0.13747354104286982, 0.019582075450498462, -0.08536052500352051, 0.027070199243603797, 0.32566850290486504, 0.03079153748180942, -0.02803355861773052, 0.051389576484890155, -0.191675211213718, -0.07408018230513702, -0.019492764509399484, 0.07377703504358618, 0.10159635918653877, 0.3012321993113683, -0.01620584860882073, -0.0646735014291511, -0.06010378401041335], [0.008506278672140589, 0.055341002700003014, 0.07397172669604479, 0.020629629082458436, 0.04823125142067106, -0.053034759625742646, -0.07026943574759577, -0.05295069858011971, 0.10797755909690546, 0.11241083842529347, 0.05490435229918833, -0.005739014303179138, -0.0848355752426914, -0.07225423745160825, -0.11537792132689387, -0.02640699837475114, -0.04598288764835136, -0.09625014710187356, -0.028520727892740096, -0.02458133801414372, -0.0461598780142744, 0.07073148648109882, -0.00040351437850718263, 0.10529535045462737, -0.05784789080363452, 0.09327741351577688, -0.013672503061380422, -0.08944160668261296, -0.14631576385756995, 0.22468706245158548, 0.14570853063827277, -0.009104697592570826, 0.20512710864959485, 0.013379364625107153, -0.02007900773222923, -0.05370737629011149, -0.1144696401739357, -0.029356038579882355, -0.00498065950763655, -0.01054203929831668, 0.026192372890697212, -0.010177777093360832, -0.0017038885891753296, 0.2632796718896404, 0.11121502913880862, -0.02361520743501188, -0.07241443251403866, -0.05615347897458504, -0.03615305897981361, 0.11714466367213795, 0.21933388418916908, -0.06784409906593057, 0.013044328152497642, 0.15036224045794447, 0.16350172105127517, 0.004652893078950852, -0.019620500304362215, -0.1314253693774801, -0.007288407665682778, -0.11926781219074037, -0.05637902193190771, -0.0705716642830589, -0.25625728858021346, 0.17422182377760476], [-0.005309305824608265, 0.04615869924198992, -0.1607469479600746, -0.07627064988992464, -0.02034606772874012, -0.1884761222501774, -0.11694982347630634, -0.09511948989649842, 0.12802120183453733, 0.14025471803113843, 0.1381395762598914, 0.10813509133495129, -0.1918465182596266, -0.02821468438419053, -0.1268605661833355, -0.022015309156887763, -0.02240889903007856, 0.08557599155823899, -0.035646421353117276, 0.18283776270122262, -0.08932088675661348, 0.12368389166419672, -0.1258757077996784, 0.1401763115529208, 0.22388123393270654, -0.3124432812411212, 0.0159674753973746, -0.11540906878760698, -0.09349374902528677, -0.18961305974963968, 0.03516360818501961, -0.11943221381137854, -0.04787039595488876, 0.12173414714355667, 0.003679408696296716, -0.010568741167135456, 0.04836319625285156, 0.04441825032397626, -0.04938954007959735, 0.03679011447167377, -0.15072686975586763, -0.03944635450449215, -0.06531438446979457, 0.06523417482614044, -0.09999691596012263, -0.09943641156331459, -0.051448473012686534, -0.11008702214879348, -0.06986541062663003, 0.04622607039224265, 0.03855960478399777, -0.1074197112269101, 0.08494095945025426, 0.03790962887851795, 0.16876268046843457, 0.09705179419568286, 0.12778219468380764, 0.011245985202565876, -0.09570053629668814, -0.034552195579092844, 0.08424282646532195, -0.15932438881168998, 0.09904133211413597, 0.07187998347203904], [0.030983259066842534, 0.10121856098039306, -0.08491741914048219, -0.19143793091551994, -0.39278439663742953, -0.017583246824542025, 0.0010300598269468342, -0.015638741593201087, 0.10348713108403365, -0.00672039263355946, -0.1455845579249784, -0.11343560197686062, -0.2978706371209379, 0.038502313664870225, -0.023826529804550203, 0.06567727793119868, -0.1622104924345752, 0.06655322924586533, 0.06800957829924528, 0.01829418547978993, 0.03774937454244046, 0.03694593175046297, -0.02294560648207193, -0.03722444399249755, 0.006206757808658783, 0.10076221373843151, 0.18977858348773066, -0.17236905684400614, 0.03840972658507917, 0.07310795761331189, 0.32616655052660004, 0.10319411674615683, 0.02176026791216282, 0.12914362634363422, -0.0486556614466025, 0.12062645213381605, 0.21623429020406124, 0.12678791761241331, -0.059812138341334906, -0.03608110356870992, 0.1003730611508603, -0.15032668793626539, 0.09367384973545392, -0.02765666747058253, -0.005358483694943715, 0.03987357187535217, -0.04502979629130717, -0.10142118998504697, 0.04717481685105924, -0.11659581288527915, 0.09947948725928807, -0.09207557061849668, 0.11391647930740349, -0.06540622776997834, 0.0338447576045991, -0.10791458169891875, 0.0013436809424552118, -0.07345503745563924, 0.05836085291498618, -0.1666622179169451, -0.009507164802931428, -0.004950264917047286, 0.18414787981631844, -0.01029235611487576], [0.07213159845684772, 0.15870542854982053, -0.08310680008631156, -0.22759945519510694, 0.003434400923475285, -0.12466631325948598, 0.10616015617294826, 0.09085328521413207, -0.12655768259112546, -0.03676122935574635, 0.08564347140696091, -0.21196941205137998, -0.009342379349589614, 0.026223362422396132, -0.024328822711465192, -0.10948940407116615, 0.09469371201133864, 0.010190529352169882, 0.07785933471126932, 0.14145658694383056, -0.24634584499094012, -0.14873270979246656, 0.06734571888232685, -0.04794613550397848, 0.05842712057016365, -0.09324817940995259, -0.05332570724354226, -0.055157551851321956, -0.04727117249585927, 0.07521574262968217, 0.12436053551951809, 0.07026333671484784, -0.1065264180007672, -0.012668286716357975, -0.06793851428680152, -0.008322978322812525, -0.0723846170710431, 0.2222514990692003, -0.16567210009382818, -0.029646244593613338, -0.2020218029029509, -0.14202288988560038, -0.11196412603384658, 0.06648634300544892, 0.13202725439890428, -0.06878838087660967, 0.17855164690739297, -0.04700846496789935, 0.0886903405004044, 0.019157674073864737, -0.179807683844956, -0.013403510640971453, 0.06706341575658266, 0.046573793608473184, 0.07834389438197462, -0.03184150912032493, -0.2287913288447511, 0.025423378687255433, 0.02657299793404299, -0.21527130585317542, 0.12801716699607654, -0.1534918162706472, -0.1045571432041405, -0.033626711620301133], [0.04318224005500486, -0.15573649981111723, -0.01139864819593955, 0.11467572764649138, -0.050801293353037305, -0.23571837287456748, -0.15635361519099855, 0.1397848260804409, 0.005609366740450895, 0.07392224429047162, -0.03819862185956141, -0.16231105039854582, -0.05567491077811911, 0.15280554167140983, -0.038677305637703385, -0.10471339228315694, 0.041849680118183644, -0.1493731395005362, 0.19352959812299045, -0.020762429405181176, -0.010998956479831823, 0.002871997438633154, -0.12407974027184497, 0.12636610987199962, -0.12856388744572197, 0.0643639310912455, 0.06329779219626867, 0.03765004059172933, 0.09699317849094667, 0.08050007818827618, -0.0016783581896160395, -0.24771615036652322, 0.0918671649816866, -0.02742830623685664, 0.06295824119804015, -0.071460355281717, 0.024828851250332403, -0.06365443378788309, -0.14054732961216668, -0.2984881487299032, -0.16113991046629716, -0.03674325025568495, 0.1263838335023315, -0.0050115449114175635, 0.14514138231904192, 0.013350441216523165, 0.09734638905945638, 0.08407817413788218, 0.02539534416431537, 0.07852495109050459, -0.08908069933706197, -0.026683824308788063, 0.056130072286699514, 0.004053266534469227, -0.028896999075564922, 0.0076402663008495195, -0.05617479766429334, 0.0965850336776131, 0.10094334494038221, -0.10257585973545713, 0.005121446064765372, 0.1564958253708069, -0.037301960938709106, 0.07188396894972715], [-0.10130659552443687, -0.14503560453525918, -0.04217717744032215, 0.10635145081248466, -0.11499842109400238, 0.061340448070143314, 0.04942465168906681, 0.036139014182456436, 0.04091143194742248, 0.15289001899570273, -0.04175019290642436, -0.022229699293846616, 0.14961762787972901, -0.06947602601838884, -0.18875219311068245, -0.12054593806149781, -0.04897614489397009, -0.06775545672660747, 0.028784113838541882, -0.1294539269130488, -0.20475203444448992, 0.0004184082406825701, 0.156004421678279, -0.11869053408952872, -0.03971817707004335, -0.03872009208034456, -0.2081408651359684, -0.05943547194319693, -0.14112471076357366, 0.16693862686181277, 0.11562613944128235, 0.014206582390554494, -0.0834590666988344, -0.0025572099990304434, -0.21716609142642357, 0.16425080408158563, -0.1527128303464561, -0.07790903787145477, -0.087638107867525, -0.15164601353725382, -0.18551559243222773, 0.05231149593903885, 0.1598290152179722, -0.07473683262946096, -0.047903400787505476, 0.1460541016357171, -0.16594907978651052, -0.016936725580640896, 0.04698428093295255, 0.09014259337137097, 0.23753633013123573, -0.1054822832134253, 0.026361121341596357, -0.03875833824592146, 0.11777024395093712, -0.1809607016379012, 0.05715103971660814, -0.018550520709541624, 0.047510756627284066, 0.06385815175661219, -0.08349415318002915, -0.2054530968164095, -0.08794445546258241, 0.03149161485195098], [-0.13128059597271188, -0.19963832092602457, -0.1642542799270231, -0.03873010718290258, 0.178909022396681, -0.12842991164337555, 0.010418506551642183, -0.015397315417514087, 0.028137962773647197, -0.14518163918780938, 0.10395206240072455, -0.1372499693165528, 0.11262484689318568, 0.1473045788645037, 0.022805748572370464, 0.11664131511345979, -0.03256226173702239, -0.026011748773622795, -0.1161778124460166, -0.09877360661724369, 0.0840563146401988, -0.01686177677948567, -0.04859599233868766, -0.11486243236063155, 0.11667957627178144, 0.10088222969196703, 0.03994268638827603, -0.1418910361865179, 0.018549088252303926, 0.11297013523643595, 0.09050847387987848, -0.07609593098795915, 0.1581201966979499, 0.1355066316854576, 0.09054224724004586, 0.19914691312937788, 0.09499798237760027, -0.07741924432878418, 0.21754549250887611, 0.2190504349244051, -0.296436821218802, -0.029891064649023427, 0.10380492974845054, -0.06108992530845221, 0.13013326500989264, -0.13468392027955037, 0.048533493010837835, 0.07724897716458944, 0.07676927233151325, 0.198153587401685, 0.052824476411450653, -0.07125598164355271, 0.1882512325562655, -0.29711825717760726, 0.03633857667712657, -0.04387139741214934, 0.20815256125738835, 0.08369052627949812, -0.09341009638581961, -0.14059761108939356, 0.07812142104130818, 0.19120620954645368, 0.2190582240639431, -0.07762630519752277], [-0.12351506224492537, 0.041401375456905136, 0.07831626294909425, -0.05633125670249978, -0.10978629454570635, -0.1511526574738188, -0.04477707982939643, -0.1673121577048341, 0.08027229367035442, -0.05545614817501353, 0.12048489089918551, -0.1347835957764984, -0.008257210781904016, 0.04955599013567632, 0.059928783495141504, 0.1804195320754305, 0.16872790723199388, 0.07580436907908286, 0.13282548935601354, -0.03062892263332707, 0.19607730419326158, 0.07523903891305558, 0.10231483856127607, -0.18533847691833477, 0.3739989304177639, 0.026268496836419308, 0.25785563664728084, -0.03501289725288087, -0.03356477906507213, 0.12206663244701565, 0.032308103762193625, -0.2324653222623517, -0.1677187652741333, -0.06590227527766977, -0.026394222984759345, -0.03859262139097248, -0.10639937748475557, 0.09491312606023777, 0.19398552693092486, -0.09795007244430085, 0.219057792802292, 0.036529816754074886, 0.14678609802856132, -0.07402316530446634, -0.09936669269353385, -0.14081942299920946, -0.020481796217813365, 0.02363972012800264, 0.13264416316998187, 0.01805172870137255, 0.06179327975428009, -0.023729979380594797, 0.1249563659429875, -0.15845370353154742, -0.06014842413741205, -0.16954297399908327, -0.13193364665843, 0.037640278583421734, 0.11504677107400485, -0.20591590606346566, -0.014661701906527772, -0.20017185099878299, 0.05735022207217889, -0.06233696412648159], [-0.16818380552697473, -0.0433870606779626, -0.0422619660310464, 0.03483022127871073, 0.09196147422375486, -0.15648046333903903, 0.15177568051740245, 0.043805921078844685, -0.05631926608112797, 0.08798440256578322, -0.024889229061148443, -0.09109388413845919, -0.08281804341547215, 0.038062921744686375, -0.11937097902476115, -0.024675572099754767, 0.11263253646461692, 0.062129217664167846, 0.016320061183572546, -0.21016619313264714, 0.03783648752577539, 0.03137292694703269, -0.16541933057390365, -0.002742290398398848, -0.1386725460671147, 0.02883546765175019, -0.05769072090709546, -0.08139799023903274, -0.07135992192914335, -0.014747279673180742, 0.1303099661855108, 0.2779284463310908, -0.06210195621966719, 0.049519371941416604, -0.03687949942604799, -0.11579018744686612, 0.07513928619009581, 0.0011486254630549684, 0.05292367124759761, 0.09813844718704304, 0.1707673171683263, -0.12684544974849465, 0.10445552415668283, -0.062069326518751924, 0.11093171989366257, -0.06420611642213361, -0.1026130281665923, -0.12082166532006403, 0.03807908460192902, -0.15378456694617132, 0.21284087504221996, -0.005295658712228541, 0.06662659430181635, 0.2508843328876994, -0.08575555287309246, 0.12741722053578527, -0.10258977074393026, -0.10444489720861884, -0.0261065104530655, -0.1631141470283623, -0.03530963908056274, -0.07429819055343816, -0.11407744976674603, -0.008215906864094612], [0.0846214337168482, 0.060404463371411275, 0.053482459185373296, -0.16098681568909662, 0.00800700597914401, -0.04736602049703108, -0.03504807162634709, 0.09194711826173062, 0.03604433119653109, 0.12949513758605352, -0.13550249408462084, 0.021367364876265872, 0.03206606094216676, 0.22686540905840782, -0.10607495013335047, -0.06137183304640983, -0.008680028864471164, 0.06091762576759654, 0.1038065770944351, -0.06157978414054703, 0.04519833716880564, -0.0710235828614122, 0.04589281055264444, 0.055209884555783524, -0.07834504512296742, 0.13195195575986735, 0.0024039791514520997, 0.1352204444404913, 0.07784225394901093, -0.2505452488638906, 0.05029721972064951, 0.05296969230038458, -0.19072611715124377, -0.01998236022766128, 0.07644351630946461, -0.07253322524747784, 0.11764914143428916, -0.14357100103620044, -0.35083074603933806, 0.13846349532875046, -0.2951477825132492, 0.14382729257765323, 0.039249329271417714, 0.15329550023572477, 0.146615281099981, 0.06338703323964213, 0.03991732069617158, 0.06757323412990743, -0.0268164439363706, -0.11122193497439087, -0.0024825584024914756, 0.03244221217577604, 0.10982490271741198, -0.23458441031613206, -0.29102799488596504, -0.10260051542516889, -0.044793467787449935, -0.04134862799591307, 0.05391344770040851, 0.05888320922974696, 0.013812413440333612, -0.02614032620472664, -0.10225152294013735, -0.03375645560734779], [0.05900839702817912, -0.0810969503039871, 0.03735278086044145, -0.12428656529367278, -0.07147137363523093, 0.04400277184750154, -0.25698297059155933, 0.1694974896992471, -0.015527242551177402, -0.11942844641009684, 0.08648264461568493, 0.2578276811718418, -0.00921399565760849, -0.07199179309905634, 0.11492309674866663, 0.10815634949635114, 0.10316438230509616, 0.0944537233468192, 0.07995307075365932, 0.13470704110127485, -0.09820857554185057, 0.14857637986496666, -0.05976469319436397, -0.061438437325379264, -0.07821468397694406, 0.07034600758989583, -0.13507410604103873, -0.01135920880243325, 0.09172548210166424, 0.01447963381828043, 0.07728670744900884, 0.016321177524918802, -0.017474789519274076, 0.12992712721480382, 0.016425727858351048, 0.20665947646160562, -0.10332208386969549, 0.023325635059966866, -0.050781442030948885, -0.2602892540949558, -0.25901205177041065, 0.023472732087742854, 0.030253461774350687, -0.017240807685974115, -0.10236020664118059, -0.0806037766073732, -0.18099025928963944, 0.11291382718370407, 0.10662671235878428, -0.09474577729700788, -0.11165768975655205, -0.03593837638762721, -0.0697439307980726, 0.08694565875614543, -0.18885565236524954, 0.016952271108371473, -0.2281698791355766, -0.20249796181596105, 0.09553433709410533, -0.08067388923961726, 0.08083327861179355, -0.14373742855685348, -0.11935689726952271, 0.1555698853381158], [-0.12913406275824396, 0.0695045781341683, 0.03998218894488993, -0.0794312764553624, 0.09040678345840847, -0.021287031826341854, -0.09629990764842537, 0.17139772225117184, -0.014295309940300704, 0.23164535471578881, -0.10565742402078426, -0.04669993852297569, 0.050222582794894825, -0.013885841979291115, -0.002376366223196521, 0.15321496524516795, 0.12823078080900185, -0.15788357836089653, 0.14026845154797662, -0.1505826391598966, 0.07333801452443542, -0.18721076719745308, -0.13211651854853448, 0.14109082942116846, -0.1365118421795158, 0.06607016469731497, -0.204917804057251, 0.011745404008846085, 0.08659739959248947, 0.06859078781240133, -0.2149717196910605, -0.010590458749377354, 0.165657348511315, 0.014463665864468917, -0.12051329446449868, -0.0983665547380582, 0.048248003863932534, 0.07776166329416853, 0.05202502772697829, 0.1460895939457007, -0.03181852612869753, 0.27262662006179045, 0.005560703559778773, 0.029719428093397397, -0.04504549649474989, -0.03495174088506501, -0.11554158870143316, 0.02752050624346512, -0.14082294780418242, 0.07721115289219675, 0.03444169694004234, -0.04233990016320542, -0.11369482704663227, 0.002061647666726468, -0.0914056516737052, -0.0005621885319665799, -0.029933663744022492, -0.09656558352836359, 0.08180266620623701, 0.1585893227922414, 0.11434040379934826, -0.11320280943761221, 0.008285588532876696, 0.0026825839144399197], [0.08368725516687546, 0.1720417392134596, -0.09073339065008187, -0.14387514668888363, -0.10653602089576378, -0.07984597854088687, -0.0826098668471604, 0.19941293844823058, -0.018932854285922056, 0.12770219962975182, 0.07654519213602413, 0.134657924199615, 0.05962552727681288, 0.12172175357648145, 0.0019793769981120103, -0.05228737033478455, 0.0010639531470939153, 0.1217151706701581, 0.018782310588323147, -0.06558963277306833, -0.051306561365239034, 0.0658343661339045, 0.1139100537377219, -0.08255905638823467, -0.083196815236497, 0.1796849311918132, -0.11607321179689156, 0.1675720800609496, -0.027256514656415026, -0.31629432390074325, 0.04367695633332403, -0.013895062227760222, 0.11791483395245589, 0.050817090328543896, -0.12522184039770648, 0.20718736554789002, 0.223117465530713, 0.044860619351771075, -0.08856974594228215, 0.012660173032339933, 0.1182054351830758, -0.012570617817131396, 0.006322618483616095, 0.06972739695635122, -0.13297798013004192, -0.02978186879448284, -0.1840359648412389, -0.18688290224159973, 0.003358261685741517, 0.06725673960083463, -0.09364567501404582, 0.031088686114771523, 0.07103772949130069, -0.02418284653319246, -0.05766696787026149, 0.24091411448062092, 0.013783468980809194, -0.2077459194614712, -0.13129765690963152, -0.10687519094015249, 0.13481113933227817, 0.005665469362385799, -0.08379324355551594, -0.0587040219377184], [0.05489071827758546, 0.1006607054873961, 0.26202319984291933, 0.03769926248441239, -0.1493332339012218, -0.2786519191697206, 0.10080794716493229, 0.025775955583318137, 0.005573687763280255, 0.02298085389842663, -0.0009349315724242555, 0.06865625025348361, 0.1157722224863776, 0.022599395862701252, 0.1382964302883273, -0.02869984852210687, -0.06401419500504937, -0.009058855280466224, 0.11670668366790803, 0.0933430975127672, 0.068224197274802, -0.009046154291024977, 0.04129402194553233, 0.05096969072175458, 0.1514953847236746, 0.025004595730633426, -0.1714590498876472, -0.2274421711299224, 0.03906279809016616, -0.030709980335285967, 0.15562564298861065, -0.03685533292686959, -0.060549438684001075, -0.05087851433623564, -0.14092948779962572, 0.003347223243971807, -0.07053503246094535, 0.11344113091966666, 0.022289092477943924, 0.06384243024631103, -0.21645239646096276, 0.01812374230091699, 0.12223485003559528, -0.17046119008554092, -0.0036100606530648925, 0.10527668303466767, 0.24685127713511162, 0.07582572006680113, 0.0002392810685872572, -0.1329895742595, 0.03386263501525409, 0.07073791274307753, 0.0523961237700581, -0.14402432785100341, 0.13561589836941793, -0.13903433873957413, 0.039627110416804494, 0.2136245165350872, 0.15000579665777847, -0.04068829898446559, -0.19589517672198672, 0.0293619690466156, -0.07291202685984997, -0.012577836880116109], [-0.08446993479179213, 0.07988789121516901, 0.09756503012710402, -0.024765464230259767, 0.010372897174153968, 0.027916601735016228, -0.07270598806417215, 0.1489553853967829, 0.16275133628289745, 0.057642108175171854, -0.08240059053612725, -0.11130496175860204, 0.10941379498204769, 0.010499349504495355, 0.1328676064392342, 0.1805263374072783, -0.010205252416551285, -0.12152081446640246, -0.20030946895459922, -0.016879357440545386, 0.052958391846219595, -0.07477532625784453, 0.08151817309578255, -0.1058811479141917, 0.1290997078250718, -0.07734530812095526, -0.12463121112957903, 0.1260385257808569, 0.01631270441022542, 0.021454846724735546, -0.09532713852401478, -0.020410047860004887, 0.20796710711132735, -0.09768032231676833, -0.11946696921019878, 0.09445174249436435, -0.027569659558171773, -0.044356300761183215, -0.08187990327308461, 0.23719323801473643, 0.001592017649942539, 0.07654348008309025, -0.018144352783442626, -0.18955800842292475, -0.05931361445971189, -0.1634617208267363, 0.12823753123839343, -0.02554728552532634, -0.13182299509800216, -0.017285280370800203, -0.10905761113462721, -0.07858112206358847, -0.14842227981566594, -0.05037741841152348, -0.007240242060826398, 0.04026991940685681, -0.08096951183584776, -0.1653071902880777, 0.08484994533845117, -0.0848629866170747, -0.07587918420919713, -0.2819901318936052, -0.015329084063336914, 0.0005879512832259612], [-0.07913204158955, -0.05696055768687299, 0.07315696475099356, -0.20124346304696047, 0.06744111602330617, 0.09074205564267385, 0.21971978966005679, 0.06509688864946131, 0.08583757091062462, -0.06931497436833008, 0.19688205788660215, 0.09714845356414005, 0.2579623640111532, -0.05109670832255319, -0.15937674043556568, -0.18239900287292568, 0.03952276741578948, 0.18282047222334838, -0.0718981330231584, 0.07748860182675237, -0.0757802995900712, -0.012245150480664616, -0.17561365227062162, 0.1157162309329253, 0.11208841633156764, 0.04102284096157738, -0.08962975244690166, -0.21413607476642632, 0.17061953201123747, -0.005943648702558749, -0.06063844797578652, -0.029725977990403784, 0.012225081077616943, -0.0174513631828684, 0.0340357752706866, -0.032180318148283864, 0.06441318540119487, -0.15178350514340408, -0.0406125069699361, -0.2231090497601915, 0.09499783247054538, -0.21743379408444918, -0.19693433183464665, 0.18232300680873845, -0.2347332510227119, 0.12126314270601346, 0.030785848414121155, -0.06909303616458802, -0.1145003806415393, -0.025800339500143057, -0.10753808852133784, -0.11505978805400954, -0.2423014701632786, -0.3092737960946124, -0.1360771357245124, 0.028314778007434697, -0.12612734409851462, 0.32590635902848847, 0.0013094865424627448, 0.06004596433420571, -0.13779792208879024, 0.2806008156320158, 0.1784461341874438, 0.20728461230450232], [0.04583341663724254, -0.2261671978555702, -0.16873125493166435, -0.08851554039967449, 0.0651530211921221, 0.02195224655005665, -0.19568265144095479, 0.03015665022905892, 0.06833988834313767, 0.1823770017047883, 0.09802053240327643, -0.11349634155769187, 0.01907928515491323, -0.043492140838413955, -0.1533363494416171, 0.05995688212798724, -0.17960186199364594, 0.10210403136828287, -0.0017507889794271484, -0.2333753216033168, 0.09929052508220382, 0.15130032681636352, -0.12058853040087845, -0.015020696384613555, -0.1235790661747499, -0.005771070259211344, -0.17269780080269956, 0.02154387396706036, 0.0869782691674881, -0.08029090507540272, -0.0619076903590462, 0.2273777319166192, 0.10347852664059291, 0.0368592563788238, -0.145670131282696, 0.12239397711765115, -0.026597278818448766, -0.18648584726225614, -0.10661268334096234, 0.18193078991835976, 0.09870747205968286, -0.1950975113588335, -0.2043274494884293, 0.005022711939763858, -0.21151691338961054, 0.23584453764252353, 0.008254547288929428, -0.11693471136151398, -0.10105091025532681, 0.10337421185953288, -0.08421419053864666, 0.25517737397873447, 0.10838082539728623, -0.09930336745620268, 0.08654312899481485, 0.25790619506653745, 0.058697676708897965, -0.08229702313203797, 0.06493593224192246, -0.04683016137223795, -0.11856912278502896, -0.15340673354607257, 0.2587539180706271, -0.17874390951172275], [-0.002829895471088354, -0.17474812834543327, 0.09683628072446492, 0.08771229053294664, 0.0917697842796791, -0.1342726739388306, 0.19711554187080058, 0.049535554304091504, 0.039731289770002884, -0.01428937845660128, 0.01779349310627238, 0.1676505075692025, 0.2065182929477583, -0.19856067374359215, 0.06664374243894283, -0.21631407311714715, -0.30428198269865936, 0.07994487146284937, -0.03553308277567301, -0.17549505704794563, 0.07323808120434845, 0.1365805957975031, 0.14593795247424163, -0.10428847813444653, 0.0059811309109553635, 0.07742414817571978, 0.05413377356574762, 0.09276419878921519, -0.0024122409006067922, -0.1654229267647772, -0.12174577292916473, -0.1318772108258529, -0.008320856444498672, -0.30565983354955634, -0.04714660632286822, -0.10285920990857059, 0.12863617549744297, -0.11876266197104057, -0.2056879128247743, 0.25691291015515977, 0.3167420663004788, 0.04227473478791893, -0.12135358616809641, -0.030480061025661906, 0.10284241915939624, 0.06525237855487062, -0.15905958231792097, -0.018334262879046204, -0.04359691090432948, -0.08469807715413305, -0.24681446933056703, -0.013779533647495346, -0.17877668720746626, 0.09375197511321134, -0.0810745993059793, -0.05925809439826562, 0.07944927991054415, -0.11209446654683011, -0.2082509682601261, 0.14782410247418593, -0.17559414969606618, -0.11339315236206245, 0.02139783774558298, 0.15462296789172236], [-0.03572568074844422, 0.2265771621192335, 0.06727927238858081, 0.07092328035517102, -0.17338295365990866, 0.08430543302334044, -0.17421848653953892, 0.2926221377395028, -0.2611802255931119, 0.18779187313612433, -0.2364634418886136, 0.12822338530687696, 0.06069448383913206, -0.036749264886690454, 0.23604162399363413, -0.10430942852063735, 0.14142854380007938, -0.0691009187433774, -0.005354422240650238, -0.050204297493949876, -0.10901501413034856, -0.11061058851548568, 0.10129744765477162, 0.12810685509408193, 0.07609901948014765, 0.030034006477892436, 0.14209851409923838, 0.021240379566023336, 0.08340850026668696, -0.0454426055658523, 0.10856613439851286, 0.04851921115061611, 0.19687516166564692, 0.0021647543447446283, -0.06074784507636048, 0.0625548181646337, -0.055587155846964845, 0.08624479104779614, -0.016160120702421295, 0.07637284316749189, 0.10995647506882464, 0.14863055221705138, 0.08555468877540849, -0.02508985092719679, -0.1973164261237376, -0.43429441542181535, -0.17867203275780988, 0.17099969085045139, 0.01682559276855964, 0.12826389263581747, -0.003939738078852945, 0.059595785775700016, 0.11401082187364749, -0.1495474411153714, 0.06657759045489094, 0.06481907391965189, 0.1779553658759454, 0.22055748245664927, -0.08751177579617882, 0.22056375165066117, 0.01544581793541155, -0.07078551838589922, 0.027293070278295476, 0.07685177780691106], [0.1272047463416293, -0.005471404580051369, 0.20045864099583033, -0.05018160102228038, -0.2627843920886695, 0.12846863953691554, -0.09347302122315826, -0.30235944489449734, -0.024898669315670658, -0.02079812343535066, 0.08738790609276786, -0.09679938912969162, 0.11088271451144338, -0.30474745847295165, 0.1886736745264145, 0.0691526249814153, -0.15568860892686515, 0.26775482536760625, 0.19294197204573438, 0.07482933710580204, 0.13680810874042662, -0.17621880273789206, -0.13775301974364876, 0.025336894406869828, 0.04672405501378455, 0.07221193124680528, 0.2603546481058472, 0.11000641601992281, 0.28595281231425723, 0.10697637385453918, 0.3543589472871394, 0.032378516870224, -0.050998171581598174, 0.046859266412009715, -0.019724500116514394, -0.02247236628264415, -0.20820832360528735, 0.06242801974560514, 0.0812366649777453, -0.11494422827806955, -0.18995691254249095, 0.02311918841629007, -0.10489046537613725, 0.06764691775775199, 0.02570679140564337, -0.06084900024429893, 0.0025555859245372063, -0.1435402824138555, -0.13479422631036364, 0.04182251939694866, -0.2245004561572914, -0.1841499264332357, -0.13064802665117006, 0.2882037825509944, -0.17202962512125541, -0.0254052316623594, -0.0501917310487131, 0.04985500062357711, -0.058600299071942, -0.15070574825613872, -0.11238950588774628, 0.22914337948216873, -0.22746947061321202, 0.05625409804340546], [0.11256436999888864, -0.023699046738364853, 0.1355998047536166, 0.12764787532839367, -0.1755314103621183, 0.05425929968922363, 0.13394088772624774, 0.022589664960753895, 0.07363086691593253, -0.09753795414622891, -0.07733375402224497, -0.22350605652246175, -0.014790223140137506, 0.10572031572605006, 0.2196925249793504, -0.0977677117748079, -0.26063921943308493, 0.01859840178957671, -0.014150325871113196, 0.14635260713344675, -0.14438183129997112, -0.041008690130718894, -0.12128348995496156, -0.07053381933063659, 0.16226884137813838, 0.12544925569629295, 0.07838774216892071, 0.07480742776907037, 0.1416304516392451, -0.03220754991262577, -0.13263336921157093, -0.23316991824220426, 0.0064537497968912986, -0.10382599194000695, 0.06091480404161438, -0.07208361444904895, -0.05139206454351315, 0.1266150554837417, 0.14459631861524574, 0.095697744929113, -0.11774108243558296, -0.14683242981680478, -0.1521415530143835, -0.028584528395579643, -0.030026023203518482, 0.2803384024105475, -0.13781548452467743, 0.05072700301254004, -0.13888674158882033, -0.012596590577202372, -0.03183265661858323, -0.1914968047688329, 0.01735763703133142, 0.14811967012527874, -0.09000370201318213, 0.0401533946333313, -0.2236327410775998, 0.06166642622063462, -0.09229752649569715, -0.0572249369634296, 0.17689462267096273, 0.06414094785301452, 0.14269784281568462, 0.09766625677994997], [-0.07002506603560696, 0.0035679727885349678, 0.08961941807579549, 0.15072725721935007, 0.12504071231928074, -0.2920879655892881, 0.27019563575162536, 0.03526321739321133, -0.09424741857336127, -0.07387446030903694, 0.12810369246133987, -0.029949855452987787, 0.07970679357633274, -0.019709304506980958, 0.16858545860578208, 0.2663182449097215, -4.716894270863753e-05, 0.25556385574741064, 0.08531192138209931, -0.08095806454859394, -0.20227206450221125, 0.08822798971090087, 0.09170195307540108, 0.010634404906130044, 0.20670259514321385, -0.0764037586540977, 0.11200093538652034, 0.02456514277840198, -0.08383236096145195, -0.19873624444360216, 0.031815814154474244, -0.19691503248359563, -0.17203843870246724, -0.06776961116862464, 0.2291876572784344, -0.11966890860989093, 0.10424240889589076, 0.16386417746473866, 0.006205031017545437, 0.09415400544602241, -0.04742315012483264, 0.28050598171950125, 0.023223705597776124, 0.12115966499218032, 0.04298834091940042, 0.013989945739852022, -0.06366424772087276, 0.04462696015524298, 0.009950655313588413, -0.09014925492815354, -0.1314347940542459, -0.09972543494093243, -0.11498771596209806, 0.04116165121018532, 0.062416574434166795, -0.2947416787422732, -0.23103518294399103, 0.0608375327435284, 0.18246799166383298, 0.002607933214649109, -0.011418162055320915, 0.08959972548756778, 0.14335001455777, -0.07674849365125087], [0.12512596889415317, 0.103071338285856, 0.0077416077935101805, -0.1743142827134704, 0.2774360814342466, 0.17590331920478156, 0.026496467914885597, -0.09935938494680263, -0.13366730021492945, 0.005822264391138265, -0.11668279299526182, -0.3136188159625663, 0.14987203515948555, -0.07214694248878036, 0.009600283628946464, 0.1244750279322946, 0.03096455651036525, 0.20491958456476622, -0.12454834109856257, 0.20216412506758213, -0.00817456610398195, 0.060793839838368634, -0.05356168551665221, 0.14172712682559188, -0.05918247495996653, -0.009321694020582387, -0.0015090717086417601, -0.027852228400452674, -0.06493824573514557, -0.013066341210815447, -0.08745813741071255, -0.09564216323415828, 0.08321438805443768, -0.26866013827524865, -0.17506096212735536, 0.09948110899061238, 0.11031528577848601, -0.0027703533117038434, -0.09180081146469654, 0.19641778187455178, -0.05908540958137639, 0.050399087416819775, -0.07809922580674347, 0.04713818237108746, 0.04478544465620783, 0.007379677204749156, 0.23944450809786488, 0.004447302270188924, -0.2075681756631026, -0.05062937907603616, 0.10002719774886423, -0.13704382080544286, -0.33357074285219346, 0.0045449143158891895, 0.16845335759456495, -0.030963757852076203, 0.01591079696031534, -0.07052094216215661, -0.021023531713934025, 0.29526656127591894, -0.004720733214476895, -0.0946323131629174, 0.042762728827178895, 0.032618040086277486], [0.2183991888853031, -0.021138884490127297, 0.21685556018655502, 0.0417958452995931, -0.12681631015595723, 0.25441638636151903, 0.011321058496346025, -0.013624957526371086, 0.16799233981970957, 0.010916483857299182, -0.15801915304658382, 0.12969621488948266, 0.0572106150778293, -0.04200048590643975, -0.010789955589411605, -0.030299698866599153, -0.11908474809211278, -0.09050708289811944, 0.1282980615741588, -0.07631342029828568, -0.05027883670888755, -0.07345643368388731, -0.0952094625152478, 0.006765051671058855, -0.20171886778473233, 0.13366393162481988, -0.05370910265608604, 0.02745843442145507, 0.0009896187424339436, 0.2695636972014429, -0.08487988618211612, -0.03769890859911083, -0.08685422891150707, -0.24354156667478052, -0.10220696535993933, -0.18489897638773434, -0.15567762664702917, 0.19316884456047742, -0.18768875649254813, 0.08044962075164667, 0.09085951266017611, 0.02796516016161369, -0.233689509237491, 0.13366099779345747, 0.020495256608554665, -0.20810903888175014, -0.19289504828127188, 0.09607902032859657, -0.1670730797449449, 0.1415073990661424, -0.19951757697158526, 0.039925415053112964, -0.06246737244676754, 0.0502438563624568, -0.3304304119458759, -0.20467891852544398, 0.11627153091229897, 0.15602768819346946, -0.09798988499017058, -0.0983384745014381, -0.30637523284401147, 0.17883617477635239, -0.13727431158169362, -0.09787218924869016], [0.013521798076138571, -0.14555778838152686, 0.04044479470788428, 0.021997062587436424, 0.10423858606306644, -0.06530058486679642, -0.1579329030924213, 0.08234336222166969, 0.006894474130590373, 0.0037401657085857627, 0.12783395807579584, -0.12078852211554056, -0.0977147004988881, 0.12362209825961297, -0.15210864829643503, 0.2830071302881093, -0.06624707638107369, 0.08976336821825984, 0.024962208788007544, -0.0029449494751612637, -0.13872119166984587, 0.10306038084113586, 0.020155151306980187, 0.1459610891726611, -0.16487515035698574, 0.09492910361174454, -0.020896229798087945, -0.11084549924154714, -0.060740083189053426, 0.010733976287465299, 0.08217635798348676, 0.0033160182868077026, 0.05415686642685932, 0.09931910363075942, 0.1050432844537221, -0.03312083717487234, -0.03828838265377157, -0.1710155891193436, -0.06844834534967997, -0.2711051037547371, -0.16002691496024715, 0.06300627693333911, 0.04786801721558308, 0.09242031888096992, 0.17251071640529328, 0.11051514612568751, 0.08125685372856488, -0.00042986598673812353, 0.0043593748594657426, 0.058777923990515395, -0.09692599111308312, -0.054588988366525974, -0.13940294865829414, 0.08580870812311348, -0.05949187274436879, -0.024132083451716795, 0.06725562798662742, -0.1480457214918407, -0.030640833065742192, -0.15434486874475453, -0.05055846536626658, -0.026061065734081332, 0.1526552404875187, 0.001884773138599442], [-0.07906951019220025, -0.1517189182771504, 0.022192234303555044, -0.1436247278953778, -0.12041088559845609, 7.223510703645895e-05, -0.1365197712385195, 0.07929586122401987, 0.00875611170713203, 0.14979131694209646, -0.02869294277883818, -0.1327334963256321, 0.0961221204038593, 0.09259553060608249, -0.1344056237235746, 0.039690361634645656, -0.1500146260294126, 0.022593551275226376, 0.08436027924663046, -0.2993387073241988, -0.2341065242854208, -0.10158312008819138, 0.1660955656552503, -0.08426464169210339, -0.2592418575650756, -0.07336690248934291, -0.05844268611176639, 0.2552261922002158, -0.06451481444312451, 0.24320248683814197, 0.10536849353564699, -0.22716280779435458, 0.09867992406684231, -0.014073509305489633, 0.20309733914389055, 0.04367592138872012, 0.09652663315233515, 0.034436888624779755, 0.11240843780259682, 0.11914448347675469, -0.29145974078469933, -0.17256321240105554, -0.00867906887549413, -0.14025753006443634, 0.10295712474124208, 0.05622141682942589, 0.11220736338417617, 0.15561089724898675, 0.12594291197020233, 0.15287640320127838, 0.022783467711381573, -0.18186136121741142, -0.11121422750192118, -0.08593222951905369, -0.07348203122833559, 0.036484324960805455, -0.07003088259754393, 0.19016368975121775, -0.1803699384456094, -0.032807030049472705, -0.03166567799741848, 0.09860532681265588, -0.0011338299177613249, 0.06889977406591981], [0.18997345358888898, -0.20404405227001457, -0.1123623427318774, 0.2677266296073998, -0.2217058477768057, 0.11555734449848722, 0.21813556236965279, 0.04494210324190498, -0.03118150736828596, -0.07836668708324962, 0.03850769065889282, -0.3894532703588399, 0.020898217009141476, -0.07599573724336922, 0.015851178080786878, -0.12349463046939806, 0.1836627784934745, 0.2531303974072864, -0.19634932493109242, 0.07135709226125392, 0.03387032104383417, -0.006373392445175846, 0.01543376760512121, 0.17561413149820201, -0.22355303416816372, -0.040941905906889474, -0.020631359190522672, -0.09995506678541512, 0.20518536422239306, -0.22649715841679707, 0.005276196930533144, 0.02795390105893575, 0.338728342863613, 0.03903165081618202, -0.15654498581450027, 0.061127453031883855, -0.07159741742273783, -0.025838085056045113, -0.0041516489776250946, 0.061199657815641566, 0.20381271584168315, -0.1590141672242327, 0.03388907672690426, -0.14440486258476906, -0.12674090161264542, -0.001236154807711022, -0.2179363625448958, -0.13816104200989582, -0.092357826578996, -0.0013576566845473366, 0.11932101077388653, -0.045486573627656124, 0.027270120427367917, 0.06000186616407801, 0.2123275767811186, 0.03672219427113215, -0.21637917438103293, -0.13920316648835881, 0.11512208476480376, -0.0018897766367000663, -0.17335398430235158, 0.23534459492735205, 0.16689303699160604, -0.019135172776327397], [0.07126192491581539, 0.054369127259460776, -0.009528929729089655, 0.3386524813487958, -0.0782667759685623, 0.018177492500715847, 0.0028121970805076706, 0.06363118255466034, -0.047244863914622154, -0.33312506745057474, 0.02456045755521045, -0.021848939925514194, 0.13622759003618432, 0.04749289926621239, -0.06347986488128173, -0.14903811585825508, -0.23641425077975867, 0.18516325310025494, -0.07824253710071927, 0.018950826936738472, -0.2232986830074841, -0.042158271039297646, 0.13472624404846886, 0.04870511044795711, -0.047103374471742294, 0.18934370713046642, -0.02358783499233331, -0.15133057249999393, -0.06840851060121514, 0.08398661568789986, 0.15822750864719176, -0.054653254165085124, 0.1581354617300514, 0.08038848517304906, -0.04080775778144277, 0.10504804043482147, 0.16539298337519595, -0.010320204416454405, 0.15337400799602882, 0.0114868164141349, 0.23010440689376585, 0.03050626588294987, -0.01163599889151048, 0.07267282383956392, -0.24439583265356607, 0.10341473332884497, -0.1683610439425733, -0.10038060232654801, -0.10733685607946822, -0.1471700572988339, 0.02626855015763318, -0.21443995780010178, -0.05718371821857864, 0.026169172893821684, -0.09903392450372482, 0.1377082620949772, 0.009415749370725751, -0.029880929334807682, -0.15331194232772538, 0.07749146904018085, 0.10923175816093184, 0.23366962053500479, -0.07248745436661722, 0.00923529489866574], [-0.13249698855916692, 0.05988250520532943, -0.23189362970027155, 0.3290219087664019, -0.12792735048772036, 0.11648016511700394, -0.1165091027914137, -0.22487976368887372, -0.2755754779711493, 0.06614912002264489, -0.13688453609073423, 0.16386134140720487, 0.24493854606564439, -0.2684527967572956, 0.06615413473515819, -0.1830236397442311, -0.11765178480407174, 0.02969572426530345, 0.24890270355941474, -0.017056462000247085, 0.21804333097619802, 0.43292054378655787, -0.05808047888607441, -0.1826286824604006, -0.01029281557618389, -0.1769729969445297, -0.11587648480717185, 0.1316875511069648, 0.004884157839511009, -0.008644531591068443, -0.029840034079531622, 0.14576834698150448, 0.25189691035204465, 0.0758229067636094, 0.01862067077503834, -0.13258854187071695, -0.06395892432336124, -0.01623259353424708, 0.2508490916199445, -0.0567820503798653, -0.17641245660204144, -0.03627867873701856, -0.032158776205295836, 0.12980951801935173, -0.17232914568573832, -0.18672707544223524, -0.06712583894576704, 0.31973657281233564, -0.18323978750529638, -0.1886173368683175, 0.37621807725530443, -0.10766797825474948, -0.10275192492546277, -0.05247792697609181, 0.24378476432443105, 0.16862597094028825, 0.06151611863123395, -0.01261409846233854, -0.13808648671510207, 0.23181919732231077, -0.022034509306500562, -0.08295372176086821, 0.005243233047849138, 0.1262261026497163], [0.2206104359607459, 0.1268472280765676, 0.021715962668086505, 0.0733558600292905, 0.03168103566613693, 0.2233052495308811, 0.005695950059096679, 0.05461701243098143, 0.09944497271585175, -0.09161824515125039, -0.20767703465476023, -0.015295533805774884, 0.1873090810135259, 0.06762045757697589, -0.1653853380707876, -0.0019661987131706195, -0.1392204463507659, -0.20589646820765373, 0.07320556356203667, -0.0874071237497206, -0.0063382749089367085, 0.036210219850031804, -0.12051959055811003, -0.09889999310997435, -0.20544777249018806, 0.08436230921130318, -0.1186844108413984, -0.2833820397641479, -0.011248587764268349, 0.15000146456782232, 0.028297248990799224, -0.07624604832946576, -0.04846543886301934, -0.07664462814051669, -0.11232449532303881, -0.12391545178221079, 0.18154571232244593, 0.14100361761172184, 0.13465467920035604, -0.0537423455135195, -0.13069770552495963, 0.27540493185193116, -0.0686897346676676, -0.06190751843161598, 0.1665637970249481, 0.10954821966858791, 0.06593717368218754, -0.07154890137528093, 0.01999939902102854, -0.29072832071318866, -0.021417190596403856, -0.040434315875283275, 0.02309549119965167, 0.1360369424488257, -0.18014652469239148, -0.013554234135784092, 0.19974884840206755, 0.1442595685671571, 0.027281635837868065, 0.2190848614142263, -0.1951520310927191, 0.09008400814468533, 0.4814527139282589, 0.17024350359528242], [0.018660522892923737, 0.149935574002185, 0.06555534475800694, 0.4290834286530117, 0.026649853496289254, 0.08350956112759868, -0.1981168271354623, 0.14855041962863838, -0.013743241501730103, -0.02742973919101031, 0.039537478742039625, -0.06718295043678307, 0.20306225757976762, -0.02976752972905384, -0.07336193183721658, 0.02731579374837386, 0.18371554878044433, 0.06100188049636932, -0.12787310505704688, 0.06199082411152794, 0.04971598130393993, -0.06554449073859987, 0.14314541568938013, 0.154903663383977, -0.05685203591903775, -0.12437372487251776, 0.1739454230206359, 0.07163224542807155, -0.06715514128151169, 0.0923628295213946, -0.0012745613157343844, -0.250561897352105, -0.13241052806713982, 0.16841756898267057, 0.13597434805705336, -0.14726086593631685, -0.03768584360493797, 0.10601267546320159, 0.058898650599639994, -0.09582497659458822, 0.05844960904565523, -0.09345230532468068, 0.12623195232889764, 0.17948999440290583, -0.019681307628865684, -0.06790740992897687, -0.019459755717611445, -0.137955295393947, 0.14648415829179298, -0.12620737513841024, -0.24319148997925932, 0.07432836536314975, 0.06673411540991105, -0.1804830927426495, -0.11065709025430252, -0.051413895839360894, 0.0771786998556169, 0.16960929352223914, 0.13768121613944012, -0.055167558975209426, 0.3197343035808323, 0.09498433271257291, -0.09818449926878718, 